tree
num_class=1
num_tree_per_iteration=1
label_index=0
max_feature_idx=83
objective=binary sigmoid:1
feature_names=codeElements2className codeElements2classNameExt codeElements2commitLogs codeElements2documentation codeElements2formalParameter codeElements2hunks codeElements2literal codeElements2memberReference codeElements2methodInvocation codeElements2methodNames codeElements2packageName codeElements2rawSource descHints2className descHints2classNameExt descHints2commitLogs descHints2documentation descHints2formalParameter descHints2hunks descHints2literal descHints2memberReference descHints2methodInvocation descHints2methodNames descHints2packageName descHints2rawSource description2className description2classNameExt description2commitLogs description2documentation description2formalParameter description2hunks description2literal description2memberReference description2methodInvocation description2methodNames description2packageName description2rawSource stackTraces2className stackTraces2classNameExt stackTraces2commitLogs stackTraces2documentation stackTraces2formalParameter stackTraces2hunks stackTraces2literal stackTraces2memberReference stackTraces2methodInvocation stackTraces2methodNames stackTraces2packageName stackTraces2rawSource summary2className summary2classNameExt summary2commitLogs summary2documentation summary2formalParameter summary2hunks summary2literal summary2memberReference summary2methodInvocation summary2methodNames summary2packageName summary2rawSource summaryDescription2className summaryDescription2classNameExt summaryDescription2commitLogs summaryDescription2documentation summaryDescription2formalParameter summaryDescription2hunks summaryDescription2literal summaryDescription2memberReference summaryDescription2methodInvocation summaryDescription2methodNames summaryDescription2packageName summaryDescription2rawSource summaryHints2className summaryHints2classNameExt summaryHints2commitLogs summaryHints2documentation summaryHints2formalParameter summaryHints2hunks summaryHints2literal summaryHints2memberReference summaryHints2methodInvocation summaryHints2methodNames summaryHints2packageName summaryHints2rawSource
feature_infos=[0:0.37868272139926512] [0:0.35309092620350274] [0:0.37181387436582097] [0:0.36522878827288718] [0:0.37507812750136343] [0:0.2946823036550994] [0:0.4355241388131591] [0:0.46669450628013143] [0:0.53960478013488922] [0:0.45090180127656915] [0:0.86980124568448747] [0:0.45687923332023228] [0:0.71673096887978982] [0:0.57105669809025317] [0:0.42047587890112559] [0:0.51303367448465909] [0:0.63209603796618996] [0:0.33788071903593897] [0:0.51482466245446468] [0:0.62206457680543847] [0:0.57423614225748676] [0:0.70710678118654757] [0:0.99272458630266103] [0:0.49084530740511412] [0:0.65650831882100436] [0:0.47687255792757532] [0:0.47789451312928644] [0:0.63198329910137974] [0:0.5117809334472303] [0:0.32783092475485859] [0:0.59070738825276803] [0:0.55675314525501662] [0:0.54348585021888729] [0:0.4375318816901847] [0:1] [0:0.66420550228418496] [0:0.69873839284764061] [0:0.35871469893592239] [0:0.36859450155802342] [0:0.42544456554590848] [0:0.53359067298271257] [0.0053824627069048413:0.26473490733042943] [0:0.39624873899830987] [0:0.38254976303931137] [0:0.23350283046045217] [0:0.32198207063305384] [0:0.99269361202347906] [0:0.41019207644840322] [0:0.7218994157291585] [0:0.61763079364652307] [0:0.54980637381493769] [0:0.61641418039291729] [0:0.68558405245087473] [0:0.30846080445568025] [0:0.54211589395340898] [0:0.51042701341355401] [0:0.40803186914538253] [0:0.56025937157334815] [0:0.89588367566420857] [0:0.42098608213475958] [0:0.65743064686743558] [0:0.38779711047046883] [0:0.43911198477312169] [0:0.53656123096360897] [0:0.50593068538380048] [0:0.3319158580106798] [0:0.59062173196577528] [0:0.53555098154438185] [0:0.4615462395884552] [0:0.4126836702535297] [0:1] [0:0.52355311089190892] [0:0.89393091770538313] [0:0.80653845988416917] [0:0.51192973349343829] [0:0.54519619413591847] [0:0.68558405245087473] [0:0.44966860157173877] [0:0.47001245808535369] [0:0.63832251519658312] [0:0.54782936066503596] [0:0.56025937157334815] [0:0.85980609628018034] [0:0.55432226271117468]

Tree=0
num_leaves=14
num_cat=0
split_feature=61 50 64 59 33 58 31 62 59 68 24 56 83
split_gain=446.56737226726 277.11904406351448 126.73449244060474 54.141914893617042 29.614874869103915 38.544804764257833 64.012724343850167 27.442111762889766 16.865821596244132 39.055833333333332 11.049097944677357 32.007252310211705 6.9006942619735128
threshold=0.12327329783182685 0.06582603525198559 0.068196734295700931 0.066760096525772736 0.055599712737580013 0.051837329749253792 0.11547787334030001 0.19376771357605324 0.070842867267926476 0.090453379521582514 0.14152171961885493 0.10100748771548837 0.15793779819463294
decision_type=10 2 10 10 10 10 8 2 10 10 10 10 10
left_child=4 7 -3 -4 12 8 -7 -2 -6 -10 -5 -12 -1
right_child=1 2 3 10 5 6 -8 -9 9 -11 11 -13 -14
leaf_value=-0.059619565217391306 -0.059999999999999998 -0.059999999999999998 -0.059999999999999998 0.049890109890109891 -0.059999999999999998 -0.056756756756756753 0.027272727272727271 0.0014634146341463415 -0.059999999999999998 0.0093749999999999997 -0.059999999999999956 0.036867469879518069 -0.012857142857142855
leaf_count=4403 275 63 24 41 418 73 25 22 86 30 20 22 20
internal_value=0 -0.2644415917843389 0.73866090712742982 1.1699999999999999 -1.9070307960488089 -1.4714881780250348 -0.46357615894039733 -1.7341772151898733 -1.7394366197183098 -1.0133333333333334 1.3723404255319149 0.60194174757281549 -1.9774977497749775
internal_count=5522 467 170 107 5055 632 98 297 534 116 83 42 4423
shrinkage=0.03


Tree=1
num_leaves=11
num_cat=0
split_feature=49 66 62 62 51 71 14 48 17 65
split_gain=456.58925412268491 250.60158513607365 146.63899140139875 70.181114609211363 37.242599387126887 19.990967849254133 11.346282520852583 11.540091779986142 33.899911924416088 9.7161039800382696
threshold=0.10415214293880025 0.047207092253918649 0.10495736232469662 0.26072497884367746 0.062932013633348743 0.14663040567549532 0.2490641789249354 0.1203396660609041 0.010144727213685872 0.017404168782386927
decision_type=10 10 2 2 10 10 2 10 2 2
left_child=3 9 -3 6 -5 -4 7 -1 -9 -2
right_child=1 2 5 4 -6 -7 -8 8 -10 -11
leaf_value=-0.057685006671734186 -0.0088965850848970029 -0.058480823235898642 -0.014273785782600851 -0.058576870965997355 0.027917644541046033 0.0424737929404208 -0.0085090352021792125 0.014046432685585386 -0.053911898699484401 -0.058508617432282896
leaf_count=4875 20 73 24 35 20 75 20 20 130 230
internal_value=0 -0.14784398413604605 0.7443842182238527 -1.8526775927011976 -0.078445536210264427 1.239543629722627 -1.8874107205683834 -1.8978406290938301 -1.218093046497011 -1.7427701814489311
internal_count=5522 422 172 5100 55 99 5045 5025 150 250
shrinkage=0.03


Tree=2
num_leaves=14
num_cat=0
split_feature=61 54 51 62 14 31 56 61 19 26 34 48 48
split_gain=396.6603551263097 229.93963580970993 85.042891981676917 80.355895277504672 46.683939922101672 19.628306716806946 33.1550577162579 18.547627364306287 13.626633257626139 12.001408160805909 55.995611099253964 5.5381400996784578 35.019030601615412
threshold=0.12327329783182685 0.041119579649517214 0.23442565353317182 0.10495736232469662 0.2490641789249354 0.11698826257869273 0.04647903179652068 0.095693531191695463 0.15628787415802822 0.23308729523612479 0.2494108116318636 0.1203396660609041 0.12723448813533511
decision_type=10 10 8 2 2 10 10 10 8 2 8 10 10
left_child=4 2 -2 -3 5 11 -7 -8 9 10 -5 -1 -13
right_child=1 3 -4 8 -6 6 7 -9 -10 -11 -12 12 -14
leaf_value=-0.056420472280664706 -0.056320103478706154 -0.056842597085381918 0.023126611112200043 0.043197961501108599 0.0035089035939707153 -0.056800612093954816 -0.056997837499944755 0.018079192604960635 -0.010438906831863097 0.052668055625418854 -0.059225464491108146 0.011266617012022195 -0.053856051022982764
leaf_count=4646 306 44 23 20 32 118 25 27 23 22 29 22 185
internal_value=0 -0.24840490031136211 -1.4083267552443781 0.81618952353038732 -1.8004912883244373 -1.8234700795380754 -1.0887291759205195 -0.069302411572013362 1.1451577289079802 1.3202895437544837 0.69529722633359925 -1.8551904707569351 -1.3550199393035227
internal_count=5522 467 329 138 5055 5023 170 52 94 71 49 4853 207
shrinkage=0.03


Tree=3
num_leaves=11
num_cat=0
split_feature=49 66 62 62 66 64 48 17 65 79
split_gain=408.82109808649921 224.38558820747488 130.61609390788973 60.926227910098078 33.707102591610834 17.224618418341123 8.5654808618874085 30.494300079437167 7.9551015282120829 3.489695025382872
threshold=0.10415214293880025 0.047207092253918649 0.10495736232469662 0.26072497884367746 0.10584255492912623 0.068196734295700931 0.1203396660609041 0.010144727213685872 0.017404168782386927 0.019939539328007679
decision_type=10 10 2 2 8 10 10 2 2 10
left_child=3 8 -3 6 -5 -4 -1 -8 -2 -7
right_child=1 2 5 4 -6 9 7 -9 -10 -11
leaf_value=-0.054332000517265638 -0.0081825346507744621 -0.055498003424268472 -0.011573558315336544 -0.056673788042012535 0.026668213918054701 0.047199161234084804 0.013888771421077938 -0.051310975867955196 -0.055573100249129516 0.019767577365335295
leaf_count=4893 20 73 25 35 20 40 20 132 230 34
internal_value=0 -0.13629176089814485 0.71069293619360863 -1.7549620717836381 -0.083349995680917666 1.1798347788984045 -1.7877805558460882 -1.1589988662465891 -1.6534334828997326 1.3556085100516893
internal_count=5522 422 172 5100 55 99 5045 152 250 74
shrinkage=0.03


Tree=4
num_leaves=10
num_cat=0
split_feature=49 66 62 62 49 71 48 17 65
split_gain=386.94145629972991 211.47379206873737 122.77766325393219 57.324148779774987 32.151512668741844 16.85878861046109 7.7235071034197063 28.33784095245305 7.0903024157428831
threshold=0.10415214293880025 0.047207092253918649 0.10495736232469662 0.26072497884367746 0.037454018943782259 0.14663040567549532 0.1203396660609041 0.010144727213685872 0.017404168782386927
decision_type=10 10 2 2 10 10 10 2 2
left_child=3 8 -3 6 -5 -4 -1 -8 -2
right_child=1 2 5 4 -6 -7 7 -9 -10
leaf_value=-0.052989742688030909 -0.0079382051611968235 -0.054122101490850623 -0.014344462345187922 -0.055709106054561294 0.026233939657069247 0.039437357704953331 0.013470137044120386 -0.050003303835185114 -0.054191494464166073
leaf_count=4893 20 73 24 35 20 75 20 132 230
internal_value=0 -0.13268611612148312 0.69130877708028282 -1.7113815668274475 -0.081054550005433101 1.1471459815798544 -1.7434897899388544 -1.1281153896674994 -1.6112941617813106
internal_count=5522 422 172 5100 55 99 5045 152 250
shrinkage=0.03


Tree=5
num_leaves=11
num_cat=0
split_feature=49 66 62 62 32 68 48 48 67 79
split_gain=366.84785474731871 199.49636673768532 115.48210910497144 54.04285882733484 30.662759068023927 16.037447162836202 6.9720147974949214 26.773788670665141 6.6259929024071198 6.6109871504039006
threshold=0.10415214293880025 0.047207092253918649 0.10495736232469662 0.26072497884367746 0.039437729339643353 0.05031082305211753 0.1203396660609041 0.12723448813533511 0.15312574538487214 0.018707477789199883
decision_type=10 10 2 2 10 10 10 10 10 10
left_child=3 8 -3 6 -5 -4 -1 -8 -2 -7
right_child=1 2 5 4 -6 9 7 -9 -10 -11
leaf_value=-0.051747386118829515 -0.053148823351754373 -0.05285184524782726 -0.015333945373399376 -0.054803929171085487 0.025803495424489429 0.045703785348279694 0.01274687963366034 -0.049080687558035394 -0.0085134394696319438 0.01561899871146407
leaf_count=4893 228 73 23 35 20 39 21 131 22 37
internal_value=0 -0.12929370756069311 0.67287146061893954 -1.6709877296563129 -0.078865726618804033 1.115920760256097 -1.702467109610025 -1.0990273260474939 -1.5720982859370853 1.278514923224479
internal_count=5522 422 172 5100 55 99 5045 152 250 76
shrinkage=0.03


Tree=6
num_leaves=11
num_cat=0
split_feature=49 66 50 66 49 64 17 60 19 65
split_gain=348.33295601266809 188.3399093979786 59.096241125501507 49.425174768758097 42.115998466357134 33.935375950248684 7.1759509794678706 115.94280525282869 6.5599943876218276 6.1806925324233646
threshold=0.10415214293880025 0.047207092253918649 0.039806896533709252 0.17421133596009869 0.069257695859346366 0.068196734295700931 0.0028071065468529212 0.07267396016210638 0.15628787415802822 0.017404168782386927
decision_type=10 10 2 10 10 10 2 10 8 2
left_child=3 9 -3 6 -5 -4 7 -1 -7 -2
right_child=1 2 5 4 -6 8 -8 -9 -10 -11
leaf_value=-0.051525992952962639 -0.0067320428755093106 -0.043052197939841844 -0.022477571517603562 -0.051777177243568007 0.024596517126897859 0.040209786279324498 -0.05130767042354948 0.031986954706750476 -0.0029076424163518425 -0.051820807813204951
leaf_count=486 20 53 39 59 25 60 4506 24 20 230
internal_value=0 -0.1260832485786135 0.6553865557057349 -1.633429167593796 -0.301357329901974 0.94067466181166393 -1.6686078042704553 -1.3348091752627369 1.1956956904437677 -1.5352431735484051
internal_count=5522 422 172 5100 84 119 5016 510 80 250
shrinkage=0.03


Tree=7
num_leaves=11
num_cat=0
split_feature=49 66 62 62 51 71 17 60 83 51
split_gain=331.41612914179268 177.93842596635639 104.42475384206284 48.961946966583128 27.933526293978751 14.710089198123953 6.1469834420122424 111.65012219888192 6.3992237679744903 5.969843968510645
threshold=0.10415214293880025 0.047207092253918649 0.10495736232469662 0.26072497884367746 0.063444724596367422 0.14663040567549532 0.0028071065468529212 0.07267396016210638 0.14658722274192146 0.21597166873531526
decision_type=10 10 2 2 8 10 2 10 10 10
left_child=3 9 -3 6 -5 -4 7 -1 -8 -2
right_child=1 2 5 4 -6 -7 8 -9 -10 -11
leaf_value=-0.050437683584606825 -0.050968185312825501 -0.051083621186435828 -0.014964606375338108 -0.052964905028151037 0.025254952340900926 0.036714389118165831 -0.050372168006069681 0.03210614097932829 -0.0037374607663276148 -0.007071261353276433
leaf_count=486 228 73 24 35 20 75 4516 23 20 22
internal_value=0 -0.12298891400902973 0.63826577197978984 -1.5985315235056934 -0.065398821394378179 1.0617927059630525 -1.6291242033674451 -1.3037920004704628 -1.6693931748944137 -1.5009664255141406
internal_count=5522 422 172 5100 55 99 5045 509 4536 250
shrinkage=0.03


Tree=8
num_leaves=12
num_cat=0
split_feature=49 66 64 66 49 68 73 17 60 67 67
split_gain=315.63900580473546 168.23099065603714 52.68934643671183 45.124176050123424 37.777626526626086 14.345771426247495 18.501648656770989 5.8538224421736231 103.96231315151061 5.5692513276948148 5.0686879245430383
threshold=0.10415214293880025 0.047207092253918649 0.068196734295700931 0.17421133596009869 0.069257695859346366 0.077041846052304644 0.36047839619070754 0.0028071065468529212 0.07267396016210638 0.15312574538487214 0.028217705897243869
decision_type=10 10 10 10 10 10 8 2 10 10 8
left_child=3 9 10 7 -5 6 -4 8 -1 -2 -3
right_child=1 2 5 4 -6 -7 -8 -9 -10 -11 -12
leaf_value=-0.049443180740564072 -0.04996461011403263 -0.00093873306558277302 -0.056126932527308382 -0.049713443684599144 0.02386250892171032 0.036501431240036845 0.022194220999732558 -0.049223611063631753 0.030024290526528972 -0.0065435464129035082 -0.054312507614608985
leaf_count=486 228 20 24 59 25 64 20 4506 24 22 44
internal_value=0 -0.1201086819021263 0.62230858565585478 -1.5660086850412385 -0.27638057048100695 0.95436229455652932 -0.017062715816282981 -1.6003436953064434 -1.2770792552961046 -1.4685274295424982 -1.021950394164977
internal_count=5522 422 172 5100 84 108 44 5016 510 250 64
shrinkage=0.03


Tree=9
num_leaves=11
num_cat=0
split_feature=49 66 50 66 49 64 16 65 17 60
split_gain=301.22191277534694 159.11356845395409 50.670944810073955 42.840942012670439 35.363680842284666 28.190774553619747 6.435597425379072 5.3763428870526582 5.2622134608359374 98.584522193431013
threshold=0.10415214293880025 0.047207092253918649 0.039806896533709252 0.17421133596009869 0.069257695859346366 0.068196734295700931 0.15724035967831174 0.017404168782386927 0.0028071065468529212 0.07267396016210638
decision_type=10 10 2 10 10 10 10 2 2 10
left_child=3 7 -3 8 -5 -4 -7 -2 9 -1
right_child=1 2 5 4 -6 6 -8 -9 -10 -11
leaf_value=-0.048505301574411609 -0.0047368735454117123 -0.04112201618939533 -0.021167426610415461 -0.048758275971606702 0.023173384390526776 0.038143951739284053 -0.0026144284364710522 -0.04889366138074807 -0.048282523634229968 0.029109278280235188
leaf_count=486 20 53 39 59 25 57 23 230 4506 24
internal_value=0 -0.11728553997690862 0.60639818137010637 -1.5356025120983721 -0.2696470458602141 0.87486003443248028 1.1149716927330626 -1.4380078458210053 -1.5694909102694472 -1.250830963070237
internal_count=5522 422 172 5100 84 119 80 250 5016 510
shrinkage=0.03


Tree=10
num_leaves=12
num_cat=0
split_feature=49 66 62 62 30 68 19 51 83 17 48
split_gain=287.74250404978511 150.61062666699087 92.019378031348651 43.026043504846712 24.093941697421354 12.951163887840963 8.227132795728906 5.2431426085558144 4.8479065134456505 5.2310549944936611 25.182402336121726
threshold=0.10415214293880025 0.047207092253918649 0.10495736232469662 0.26072497884367746 0.10904468454182066 0.05031082305211753 0.15925324967641311 0.27202375246159766 0.14658722274192146 0.0028071065468529212 0.092930131381611145
decision_type=10 10 2 2 8 10 10 8 10 2 8
left_child=3 7 -3 8 -5 -4 -7 -2 9 10 -1
right_child=1 2 5 4 -6 6 -8 -9 -10 -11 -12
leaf_value=-0.041481430309050236 -0.048220937000594218 -0.049261609591394515 -0.016228811103595638 -0.050216878725813055 0.024600107906421184 0.039045658912574735 -0.0063342519828104181 -0.0050168784234067227 -0.0016832722487978811 -0.047560514072198176 0.013960538904836131
leaf_count=489 228 73 23 35 20 56 20 22 20 4516 20
internal_value=0 -0.11461333812797052 0.5913545163545737 -1.5071363468189687 -0.042568762923587078 0.99307682894203952 1.1483206167284095 -1.4094319139755169 -1.536873612151229 -1.5452765321610731 -1.2249620917125892
internal_count=5522 422 172 5100 55 99 76 250 5045 5025 509
shrinkage=0.03


Tree=11
num_leaves=12
num_cat=0
split_feature=49 66 62 62 56 79 56 67 83 17 60
split_gain=274.95199104657468 142.64014928710995 86.774131779259761 40.916406096678656 23.112066201477518 12.325055934503581 23.641748069100533 4.8788429206575188 4.3352717440984634 4.888919968184382 94.506056664047918
threshold=0.10415214293880025 0.047207092253918649 0.10495736232469662 0.26072497884367746 0.020890787572466252 0.018707477789199883 0.10100748771548837 0.15312574538487214 0.14658722274192146 0.0028071065468529212 0.07267396016210638
decision_type=10 10 2 2 10 10 10 10 10 2 10
left_child=3 7 -3 8 -5 -4 -7 -2 9 10 -1
right_child=1 2 5 4 -6 6 -8 -9 -10 -11 -12
leaf_value=-0.046929740629260044 -0.047394830722167318 -0.048339279744656335 0.037468981854183264 -0.049658378325480916 0.02428576405873531 -0.057767983040081385 0.024364518974851982 -0.0046441566731584673 -0.001633295345605201 -0.046736731273413538 0.029817535529944924
leaf_count=486 228 73 51 35 20 24 24 22 20 4516 23
internal_value=0 -0.11211588714790179 0.57732987185727025 -1.4801728602315078 -0.041570848986247709 0.96867818943582529 0.13766093641111152 -1.3821781145621652 -1.5095996488695622 -1.5179579100718557 -1.1998042489603218
internal_count=5522 422 172 5100 55 99 48 250 5045 5025 509
shrinkage=0.03


Tree=12
num_leaves=11
num_cat=0
split_feature=71 50 54 52 69 19 17 60 27 62
split_gain=247.80518463819271 156.77933176461255 47.514911700174991 42.352980286098273 39.480778953079081 40.349477126357371 9.9636438268080383 98.642273701812201 5.3588539014306065 1.9395608245555387
threshold=0.14270371902000586 0.086202137855204211 0.060908053596415219 9.9999996826552254e-21 0.053031211577808345 0.15628787415802822 0.0028071065468529212 0.07267396016210638 0.14165448263507749 0.12983958023039752
decision_type=10 2 10 8 10 8 2 10 8 2
left_child=6 2 -2 -4 9 8 7 -1 -6 -3
right_child=1 4 3 -5 5 -7 -8 -9 -10 -11
leaf_value=-0.046189356518093402 -0.046643947752744268 -0.00033171756191323896 0.024808109957927545 -0.042188757774043892 0.0045896158980845139 -0.049492448641277005 -0.045990050099184082 0.022989017068643463 0.040060800937052367 -0.050039254447666277
leaf_count=504 381 20 35 75 27 28 4331 36 44 41
internal_value=0 -0.33039983912370618 -1.0880504374124151 -0.13857091977846184 0.60808567634638822 0.91658665504697712 -1.4828840895626667 -1.1289038871142885 1.1415753783828806 -0.92274102099721766
internal_count=5522 651 491 110 160 99 4871 540 71 61
shrinkage=0.03


Tree=13
num_leaves=11
num_cat=0
split_feature=49 66 62 62 51 71 51 83 17 60
split_gain=253.08051303723414 129.04810953490394 78.559813929189303 36.988983176907368 20.788297407474072 10.573142253440622 4.6396707725477029 4.1263021548970755 4.0666145655231958 85.879887955643198
threshold=0.10415214293880025 0.047207092253918649 0.10495736232469662 0.26072497884367746 0.063444724596367422 0.14663040567549532 0.21597166873531526 0.14658722274192146 0.0028071065468529212 0.07267396016210638
decision_type=10 10 2 2 8 10 10 10 2 10
left_child=3 6 -3 7 -5 -4 -2 8 9 -1
right_child=1 2 5 4 -6 -7 -8 -9 -10 -11
leaf_value=-0.045427906458480882 -0.045991928917248293 -0.046890854010887786 -0.01507982502196383 -0.048506687238498825 0.023420866142562443 0.032470132268440158 -0.0033363131365401907 -0.00028598429480822246 -0.045251801254653161 0.028252637723598817
leaf_count=486 228 73 24 35 20 75 22 20 4516 23
internal_value=0 -0.10504747087238116 0.5556035397538418 -1.4316357361825922 -0.040422307810948556 0.93072742726008517 -1.3331989175113175 -1.4604835089809935 -1.468971387180972 -1.1560699659060785
internal_count=5522 422 172 5100 55 99 250 5045 5025 509
shrinkage=0.03


Tree=14
num_leaves=12
num_cat=0
split_feature=49 66 62 62 20 79 56 65 83 17 60
split_gain=242.63248332722651 122.36759749037137 74.131202244923003 35.294905492735779 19.96616975258339 10.484725077381796 19.978647567778211 4.5269564631512083 3.6973388092692403 3.6456902432905736 81.722907877748412
threshold=0.10415214293880025 0.047207092253918649 0.10495736232469662 0.26072497884367746 0.0057657854943756704 0.018707477789199883 0.10100748771548837 0.017404168782386927 0.14658722274192146 0.0028071065468529212 0.07267396016210638
decision_type=10 10 2 2 10 10 10 2 10 2 10
left_child=3 7 -3 8 -5 -4 -7 -2 9 10 -1
right_child=1 2 5 4 -6 6 -8 -9 -10 -11 -12
leaf_value=-0.044742799280176375 -0.0017692969462644731 -0.046120564372708651 0.035416345429838209 -0.047910043116704153 0.023225395028391646 -0.055389034139984951 0.022531135975880578 -0.045181186406314251 -0.00027742173208407194 -0.044568513596244252 0.027430629583635041
leaf_count=486 20 73 51 35 20 24 24 230 20 4516 23
internal_value=0 -0.10291201883760343 0.54296500830498173 -1.4093237849244469 -0.039523348783844982 0.90858150370720414 0.1079491695707336 -1.3098415756398536 -1.4379792716497168 -1.4464611624533976 -1.1363085028509821
internal_count=5522 422 172 5100 55 99 48 250 5045 5025 509
shrinkage=0.03


Tree=15
num_leaves=11
num_cat=0
split_feature=71 50 54 69 74 17 60 28 63 27
split_gain=220.45188352101195 135.28374379455764 41.937510555082582 32.904084922885538 19.256239300093878 8.3734474206671621 85.968555673813228 7.7945344185373528 4.2227535094614268 1.7023986655579932
threshold=0.14270371902000586 0.086202137855204211 0.060908053596415219 0.053031211577808345 0.016441408030461832 0.0028071065468529212 0.07267396016210638 0.08461224974541269 0.1679416147971183 0.060693148088733474
decision_type=10 2 10 10 8 2 10 8 8 8
left_child=5 2 -2 9 -4 6 -1 -6 -5 -3
right_child=1 3 4 8 7 -7 -8 -9 -10 -11
leaf_value=-0.044133150721694915 -0.044634607378907315 0.0011823619538181083 0.028126450657998937 0.0069556814315911509 0.00040833852450785328 -0.043947443726977772 0.021269848353682848 -0.04963154233910861 0.03382395822123848 -0.048537616044672584
leaf_count=504 381 20 20 49 36 4331 36 54 50 41
internal_value=0 -0.30814030220075211 -1.0318824955748251 0.57381213175263901 -0.12069993048306764 -1.4155943736552776 -1.069720254661882 -0.78377383247715915 0.86399464561119854 -0.86736877439965254
internal_count=5522 651 491 160 110 4871 540 90 99 61
shrinkage=0.03


Tree=16
num_leaves=9
num_cat=0
split_feature=49 66 62 66 49 79 56 67
split_gain=224.69999706356248 111.27505501581412 67.569756527074247 32.562664098044934 25.100223923376706 9.1990840184556646 17.448661662964 4.0211899992727069
threshold=0.10415214293880025 0.047207092253918649 0.10495736232469662 0.17421133596009869 0.069257695859346366 0.018707477789199883 0.10100748771548837 0.15312574538487214
decision_type=10 10 2 10 10 10 10 10
left_child=3 7 -3 -1 -5 -4 -7 -2
right_child=1 2 5 4 -6 6 -8 -9
leaf_value=-0.042032275176412323 -0.044141428739855035 -0.044984008313352829 0.034249391775848764 -0.043918956839214381 0.021513729223827358 -0.05348006177970771 0.021465070221601157 -0.0020511714013606288
leaf_count=5016 228 73 51 59 25 24 24 22
internal_value=0 -0.096521362543545555 0.52416216211158007 -1.3685450486020629 -0.19922808339470097 0.87593609315751142 0.097575838419373104 -1.2689332674545875
internal_count=5522 422 172 5100 84 99 48 250
shrinkage=0.03


Tree=17
num_leaves=13
num_cat=0
split_feature=71 50 64 19 54 57 68 63 60 60 27 66
split_gain=204.44793424580121 122.80560490295933 47.386740197187422 38.705716647956081 38.592054796154088 21.757314675932665 14.773586338539458 11.695575480921917 3.5311625467043086 26.163419895389694 47.158428299928033 2.5892409620006163
threshold=0.14270371902000586 0.086202137855204211 0.011533176858875499 0.15628787415802822 0.060908053596415219 0.068342780382556687 0.07297508963634905 0.13986273299846361 0.07267396016210638 0.08377945244859554 0.083708866367178864 0.16657894706607904
decision_type=10 2 10 8 10 8 10 8 10 10 10 10
left_child=8 4 -3 7 -2 6 -6 -4 -1 10 -10 -11
right_child=1 2 3 -5 5 -7 -8 -9 9 11 -12 -13
leaf_value=-0.042714975347902882 -0.043478349118241569 -0.047960740755311392 -0.013387860091598501 -0.048550829808013569 -0.046365938581598848 -0.047488577046176289 0.02495528857573534 0.036434883075503764 -0.044793880778046469 -0.043770905009426632 0.029081218123796632 -0.0037181786524153487
leaf_count=4210 381 49 25 31 24 49 37 55 87 526 28 20
internal_value=0 -0.29535822736427059 0.55145115350337581 0.81528386659685248 -0.99884645700214714 -0.11293221348126904 0.41340707793067971 1.037396178164552 -1.3758571433325348 -1.1055316669005848 -0.25165105034149982 -1.3748475680366243
internal_count=5522 651 160 111 491 110 61 80 4871 661 115 546
shrinkage=0.03


Tree=18
num_leaves=11
num_cat=0
split_feature=49 66 64 66 51 50 51 19 17 67
split_gain=208.286587049015 101.09753570470883 33.195984033239611 29.4613064812022 23.366566938150296 14.61106328044292 4.1226007574294812 2.9589146312545154 2.8289840681952683 2.7322814632524377
threshold=0.10415214293880025 0.047207092253918649 0.068196734295700931 0.17421133596009869 0.078266911007469755 0.039806896533709252 0.27202375246159766 0.15628787415802822 0.0028071065468529212 0.028217705897243869
decision_type=10 10 10 10 10 2 8 8 2 8
left_child=3 6 9 8 -5 -4 -2 -7 -1 -3
right_child=1 2 5 4 -6 7 -8 -9 -10 -11
leaf_value=-0.031634859422638627 -0.04313749438135199 0.0009589770717117358 -0.029985107844885402 -0.044139884417458392 0.020497897840145791 0.032450615047251448 -0.00039599562437740401 -0.006580582209435166 -0.042080708764973822 -0.04983331168311602
leaf_count=510 228 20 28 57 27 60 22 20 4506 44
internal_value=0 -0.090369351577891485 0.50666976149858978 -1.3311685383935716 -0.19558410744074359 0.79198700896658969 -1.2310204655036512 0.94616495341608231 -1.3632483045958967 -0.90712400533496385
internal_count=5522 422 172 5100 84 108 250 80 5016 64
shrinkage=0.03


Tree=19
num_leaves=12
num_cat=0
split_feature=49 66 62 62 30 68 19 51 83 17 60
split_gain=200.36614730020142 95.960311328575671 59.090445243641184 28.786576653780003 15.169215861448075 7.7513525814525792 5.2311895468679666 3.7332239416451074 3.4523154697080827 3.3803222838216698 74.877415915495703
threshold=0.10415214293880025 0.047207092253918649 0.10495736232469662 0.26072497884367746 0.10904468454182066 0.05031082305211753 0.15925324967641311 0.27202375246159766 0.14658722274192146 0.0028071065468529212 0.07267396016210638
decision_type=10 10 2 2 8 10 10 8 10 2 10
left_child=3 7 -3 8 -5 -4 -7 -2 9 10 -1
right_child=1 2 5 4 -6 6 -8 -9 -10 -11 -12
leaf_value=-0.042014216916120201 -0.042587142095233864 -0.043606476369094566 -0.016172786009665201 -0.044903233283332095 0.021986500406297949 0.033600178032749228 -0.0084143938276395637 -0.00038414310738779092 0.0028952700875020318 -0.041736720428076288 0.027868296030294341
leaf_count=486 228 73 23 35 20 56 20 22 20 4516 23
internal_value=0 -0.088618707773737995 0.49533269439267258 -1.31342444740874 -0.018914807556773213 0.82894847885953682 0.97196004834123628 -1.212245666614588 -1.3415525709059146 -1.3505252015431155 -1.0332132882199305
internal_count=5522 422 172 5100 55 99 76 250 5045 5025 509
shrinkage=0.03


Tree=20
num_leaves=11
num_cat=0
split_feature=49 64 71 62 62 51 19 74 48 48
split_gain=192.90315424329447 89.520572020220172 40.777685041924087 27.567898381935493 15.398496517792537 14.630731694786403 6.9757717442852538 4.3276973756327664 3.1271347173567392 13.876866324172799
threshold=0.10415214293880025 0.068196734295700931 0.15076894174163294 0.26072497884367746 0.081683836164093263 0.063444724596367422 0.15628787415802822 0.12567589016121619 0.1203396660609041 0.12723448813533511
decision_type=10 10 10 2 2 8 8 10 10 10
left_child=3 7 -3 8 -4 -5 -6 -2 -1 -10
right_child=1 2 4 5 6 -7 -8 -9 9 -11
leaf_value=-0.04043096282040981 -0.043478812096720811 -0.029991582882990354 -0.042484413270477937 -0.044862697461423351 0.032320905628262737 0.021693827212648596 -0.0098044465085059609 0.00041232532339134507 0.014772210981111986 -0.037471011038540294
leaf_count=4893 212 77 24 35 63 20 26 20 21 131
internal_value=0 -0.087002164987074804 0.46005698564788639 -1.2971850069498698 0.78249305173614203 -0.018579488275591787 0.91322569721968727 -1.2262461042237014 -1.3252617002711378 -0.75391066085622715
internal_count=5522 422 190 5100 113 55 89 232 5045 152
shrinkage=0.03


Tree=21
num_leaves=12
num_cat=0
split_feature=67 50 61 64 2 33 54 68 69 74 19
split_gain=178.60438237833182 112.79942253300027 52.946916192183821 22.455757574365322 19.31883933812415 10.094758010533042 23.147741374960333 2.7575253661822785 14.51588884050247 5.1393569929328144 2.2243340379238816
threshold=0.09092490880604738 0.053730176292992017 0.095693531191695463 0.068196734295700931 0.176928880780925 0.041579693066911998 0.12672361293437193 0.090453379521582514 0.063084462598532315 0.23232441400662254 0.16444350297748397
decision_type=10 2 10 10 8 10 10 8 10 8 10
left_child=5 -2 -3 -4 -5 -1 7 -7 9 -9 -6
right_child=1 2 3 4 10 6 -8 8 -10 -11 -12
leaf_value=-0.040884068707110463 -0.038266488324364349 -0.041731828141776596 -0.047703536190258522 -0.047816672859345245 0.031432932533144511 -0.041481402208062526 0.0092200341197188201 -0.041026798999405679 -0.038311291545536641 0.01276841860134873 -0.0055076259620196709
leaf_count=4173 341 86 27 22 81 452 39 32 203 44 22
internal_value=0 -0.21611870846444353 0.38577492268147168 0.67424784215928157 0.80991063789276319 -1.297418112289664 -0.98807744501999939 -1.1356864254519954 -0.80382749608710269 -0.023694443943771296 0.93226907015246485
internal_count=5522 579 238 152 125 4943 770 731 279 76 103
shrinkage=0.03


Tree=22
num_leaves=11
num_cat=0
split_feature=71 50 64 54 16 68 17 60 63 67
split_gain=173.0076371098678 96.912802666641326 37.370175540733754 33.245277611414679 15.530920029739034 10.725036557194297 8.000373291421738 76.095278819784312 6.263663419163592 4.0924907555761081
threshold=0.14270371902000586 0.086202137855204211 0.011533176858875499 0.060908053596415219 0.093782216957545531 0.07297508963634905 0.0028071065468529212 0.07267396016210638 0.13986273299846361 0.19243778918029938
decision_type=10 2 10 10 8 10 2 10 8 8
left_child=6 3 -3 -2 5 -5 7 -1 -4 -10
right_child=1 2 8 4 -6 -7 -8 -9 9 -11
leaf_value=-0.04065653182222944 -0.041146808834390515 -0.045188295131794273 -0.015146238070479941 -0.042805001376359147 -0.045772847129200669 0.022803487528755773 -0.040372658201446136 0.022331012268409629 0.033496302040031171 0.001620984741732481
leaf_count=504 381 49 28 26 44 40 4331 36 51 32
internal_value=0 -0.26252486234869904 0.50876939782322605 -0.92222811045772413 -0.072404196035677049 0.37607844881815145 -1.2932922424486231 -0.93426229073292655 0.75145796234598361 0.90119558809143363
internal_count=5522 651 160 491 110 66 4871 540 111 83
shrinkage=0.03


Tree=23
num_leaves=11
num_cat=0
split_feature=71 50 20 74 24 63 17 60 29 68
split_gain=167.36836891580856 87.895091796914357 26.428682610831494 18.859845447721426 20.483989552654197 17.434056022452168 7.9376257255980818 72.755751330290977 4.0073555850910907 0.38460493997303047
threshold=0.1405164647696118 0.086202137855204211 0.26511842286843562 9.9999996826552254e-21 0.055716418355031071 0.13986273299846361 0.0028071065468529212 0.07267396016210638 0.094872084647476415 0.051563835037377555
decision_type=10 2 8 8 10 8 2 10 2 10
left_child=6 3 5 4 -2 -3 7 -1 -5 -7
right_child=1 2 -4 8 -6 9 -8 -9 -10 -11
leaf_value=-0.040230659132550028 0.028514504478396038 -0.021968979838463402 -0.045718353419238009 -0.0096379435360971263 -0.042418164719120029 -0.0055918546256913835 -0.040046670516669047 0.021678344740043164 -0.040075688365079153 0.030106795164792186
leaf_count=503 20 43 40 61 44 22 4311 36 380 62
internal_value=0 -0.26891781361349854 0.46727561168592563 -0.89534636814263324 0.091014102853536505 0.65474504587079285 -1.281681299853062 -0.92030495271696067 -1.1504662820951768 0.87650449835651167
internal_count=5522 672 167 505 64 127 4850 539 441 84
shrinkage=0.03


Tree=24
num_leaves=11
num_cat=0
split_feature=49 67 62 50 27 29 33 83 60 60
split_gain=169.08700027362147 75.11451688750607 22.962590056108411 21.801807967818583 20.01259862685167 12.4319127550262 11.905504806204096 3.8122665747425799 0.38531929779810525 27.400381000276269
threshold=0.10415214293880025 0.096711191353121409 0.26072497884367746 0.053730176292992017 0.14165448263507749 0.12777538270244956 0.12046806972013191 0.14658722274192146 0.07267396016210638 0.08377945244859554
decision_type=10 10 2 2 10 2 8 10 10 10
left_child=2 4 7 -3 -2 -6 -4 8 -1 -10
right_child=1 3 6 -5 5 -7 -8 -9 9 -11
leaf_value=-0.039704859882208822 -0.042139324569046531 -0.032402469773677049 -0.044805285889236039 0.023667073742403941 0.022745677176589953 -0.043787705431192807 0.020138079480571034 0.0065338538686378865 -0.0039390391157683455 -0.039120754676763493
leaf_count=4267 228 47 33 92 22 33 22 20 115 643
internal_value=0 -0.075159686612038201 -1.2391910517951192 0.56885246481091789 -0.93908248330939814 0.047606515600442628 -0.016581691814261251 -1.2669386102840192 -1.2767302138464329 -1.041447513718248
internal_count=5522 422 5100 139 283 55 55 5045 5025 758
shrinkage=0.03


Tree=25
num_leaves=10
num_cat=0
split_feature=49 66 62 66 51 79 32 65 17
split_gain=163.3858092010837 74.704674207537309 45.839440273559461 22.996897288098126 16.832875931976357 6.769362194619184 8.1948390527945509 2.6677912283031162 2.6176394018882547
threshold=0.10415214293880025 0.047207092253918649 0.10495736232469662 0.17421133596009869 0.078266911007469755 0.018707477789199883 0.09741365071905965 0.017404168782386927 0.0028071065468529212
decision_type=10 10 2 10 10 10 10 2 2
left_child=3 7 -3 8 -5 -4 -7 -2 -1
right_child=1 2 5 4 -6 6 -8 -9 -10
leaf_value=-0.028052449551200287 0.0018544368275241565 -0.041361060697369917 0.030480003376610897 -0.04123824627597495 0.019376294190378698 -0.049485789377855353 0.015048379083958119 -0.040244455992640128 -0.039004844857096613
leaf_count=510 20 73 51 57 27 22 26 230 4506
internal_value=0 -0.07377496807912938 0.45536642795000853 -1.2258253601686551 -0.14757562408381511 0.75711273611600571 0.0095112382438539804 -1.1311774476490166 -1.2579344017683018
internal_count=5522 422 172 5100 84 99 48 250 5016
shrinkage=0.03


Tree=26
num_leaves=11
num_cat=0
split_feature=49 64 71 26 30 55 50 17 60 77
split_gain=157.48613939505753 70.079579887444595 30.9309912397921 19.677052969876058 14.315861500022091 9.7252043347330144 2.7344536720125205 2.5176740124675234 65.136817318063009 1.9581446110647818
threshold=0.10415214293880025 0.068196734295700931 0.15076894174163294 0.26070144683628244 0.15194307550838018 0.29361142853031325 0.039806896533709252 0.0028071065468529212 0.07267396016210638 0.019693422213624082
decision_type=10 10 10 2 8 8 2 2 10 8
left_child=3 9 -3 7 -5 6 -4 8 -1 -2
right_child=1 2 5 4 -6 -7 -8 -9 -10 -11
leaf_value=-0.03916370863761915 -0.0018459828035929733 -0.027958242306190418 -0.020868566699932353 -0.041913558317273426 0.022114105455134054 -0.036362708217957847 0.02841735505669141 -0.038492231316755249 0.027449636815534719 -0.041424515595507
leaf_count=486 26 77 21 44 20 22 70 4527 23 206
internal_value=0 -0.072577230198429155 0.42555412168854007 -1.2126621595339635 -0.080385347318204903 0.72072449123784799 0.84235340819390614 -1.240700214081295 -0.91686396219431776 -1.148199762635193
internal_count=5522 422 190 5100 64 113 91 5036 509 232
shrinkage=0.03


Tree=27
num_leaves=11
num_cat=0
split_feature=67 50 61 14 64 2 54 27 24 60
split_gain=148.55889274205333 87.576633754644078 39.852492552816621 22.321711482293722 17.503158934876026 14.56562499477117 7.4706878634428904 11.215274387142212 1.724448934361746 0.20928712511251035
threshold=0.09092490880604738 0.053730176292992017 0.095693531191695463 0.2490641789249354 0.068196734295700931 0.176928880780925 0.10535129860360255 0.12631947150994363 0.14673595083031429 0.24539208669005683
decision_type=10 2 10 2 10 8 10 10 10 8
left_child=3 9 -3 6 -4 -6 -1 -8 -7 -2
right_child=1 2 4 -5 5 8 7 -9 -10 -11
leaf_value=-0.038242966984753671 -0.039491497981463376 -0.039538929132767124 -0.045904173263792203 0.0079825049927297158 -0.045955385663932424 0.031661560557107213 -0.034647668714238071 0.0083860834247883112 0.0061540338880393241 0.0027541039699437758
leaf_count=4718 321 86 27 38 22 65 152 35 38 20
internal_value=0 -0.18464255882706937 0.35878135182527437 -1.2172795223544357 0.61512467103747503 0.74255970774166868 -1.2418960362118319 -0.63145438441863022 0.85629833985870507 -1.1893556975513699
internal_count=5522 579 238 4943 152 125 4905 187 103 341
shrinkage=0.03


Tree=28
num_leaves=11
num_cat=0
split_feature=49 64 62 62 55 56 83 17 60 74
split_gain=147.72924456492683 63.478895329794469 27.40756858331882 19.565292996643166 13.654274426310437 9.3716627830506862 4.0598113316084437 3.2766140446983627 61.740671029176596 2.3316083521258264
threshold=0.10415214293880025 0.068196734295700931 0.081683836164093263 0.26072497884367746 0.31864428545673423 0.020890787572466252 0.14658722274192146 0.0028071065468529212 0.07267396016210638 0.12567589016121619
decision_type=10 10 2 2 8 10 10 2 10 10
left_child=3 9 -3 6 -4 -5 7 8 -1 -2
right_child=1 2 4 5 -6 -7 -8 -9 -10 -11
leaf_value=-0.038482859841951059 -0.040385917670744315 -0.039252901241997588 0.022309448998178424 -0.041656588277237908 -0.049572661965976747 0.020056651643505889 0.0090989592159496438 -0.03817467244057153 0.026891606600261173 0.0019150260495169958
leaf_count=486 212 63 106 35 21 20 20 4516 23 20
internal_value=0 -0.068795515517524164 0.41025812162057984 -1.1890942590568687 0.62717920292117424 -0.0086996735697960521 -1.2169948195714764 -1.2275400442518023 -0.88840496797179369 -1.118426309104781
internal_count=5522 422 190 5100 127 55 5045 5025 509 232
shrinkage=0.03


Tree=29
num_leaves=10
num_cat=0
split_feature=49 66 62 66 51 79 32 17 51
split_gain=143.08708922760229 63.255288720942005 38.570700232119691 20.13358006992371 13.762393611832143 5.3372955648689242 6.2536371572319922 2.5052260045986259 2.1478370815994765
threshold=0.10415214293880025 0.047207092253918649 0.10495736232469662 0.17421133596009869 0.078266911007469755 0.018707477789199883 0.09741365071905965 0.0028071065468529212 0.27202375246159766
decision_type=10 10 2 10 10 10 10 2 8
left_child=3 8 -3 7 -5 -4 -7 -1 -2
right_child=1 2 5 4 -6 6 -8 -9 -10
leaf_value=-0.02637099875011837 -0.039243147206828574 -0.040204130021388292 0.028952585189665852 -0.039970383009149721 0.018708197519622962 -0.04814806240167032 0.013740101358606416 -0.037647061562205805 0.0022844616646622291
leaf_count=510 228 73 51 57 27 22 26 4506 22
internal_value=0 -0.067585374149340613 0.42935007323516988 -1.178177686403165 -0.12399523485094714 0.7118146710303479 -0.010820989887362222 -1.2106914905325705 -1.0876172469306724
internal_count=5522 422 172 5100 84 99 48 5016 250
shrinkage=0.03


Tree=30
num_leaves=11
num_cat=0
split_feature=49 66 66 64 51 71 17 60 51 67
split_gain=138.11191872847894 60.088150428362617 19.350892442441136 16.992766050928218 12.735572803164459 7.8499507983354206 2.7089879163438582 58.969139358061184 1.8693856332095109 0.76374708676418379
threshold=0.10415214293880025 0.047207092253918649 0.17421133596009869 0.068196734295700931 0.078266911007469755 0.15076894174163294 0.0028071065468529212 0.07267396016210638 0.27202375246159766 0.027826826406630818
decision_type=10 10 10 10 10 10 2 10 8 10
left_child=2 8 6 9 -4 -5 7 -1 -2 -3
right_child=1 3 4 5 -6 -7 -8 -9 -10 -11
leaf_value=-0.037948716772537451 -0.038896460171609012 0.0041831154451976221 -0.039604126784718904 -0.017846493776708567 0.01819473262809054 0.025055829797208735 -0.037339286467995163 0.026068439444153879 0.0022149202250212512 -0.045384951013511393
leaf_count=486 228 20 57 34 27 74 4506 24 22 44
internal_value=0 -0.066530219638974694 -1.1667871055612538 0.42118696521611992 -0.12157554547389215 0.65740031623998929 -1.1993871213732725 -0.86320358671144115 -1.0742577237264292 -0.76796337235564183
internal_count=5522 422 5100 172 84 108 5016 510 250 64
shrinkage=0.03


Tree=31
num_leaves=11
num_cat=0
split_feature=71 50 64 19 54 57 68 17 69 17
split_gain=133.2852734885231 61.504412977412656 24.744564248072429 26.458804879583873 22.910757543743102 15.702444269683269 8.2312881135158023 7.5601752704458249 54.024962697893542 11.004322566001512
threshold=0.1405164647696118 0.086202137855204211 0.011533176858875499 0.15628787415802822 0.060908053596415219 0.068342780382556687 0.07297508963634905 0.0028071065468529212 0.02846986519912836 0.0012502591128576209
decision_type=10 2 10 8 10 8 10 2 10 2
left_child=7 4 -3 -4 -2 6 -6 8 -1 -10
right_child=1 2 3 -5 5 -7 -8 -9 9 -11
leaf_value=-0.038650991065576006 -0.036874775074499884 -0.042060758550763383 0.025180774495698666 -0.045618276105467849 -0.042009802852636606 -0.04420675272139233 0.025112591016862962 -0.037377272384535538 -0.039023419416999661 0.025952233965661965
leaf_count=463 394 50 85 32 24 50 37 4311 33 43
internal_value=0 -0.22289629059583388 0.4207380058997422 0.63094157367175463 -0.80437783455911693 -0.032492661935036332 0.46809320223038775 -1.1875908496504117 -0.80792749160959565 0.45400720926833715
internal_count=5522 672 167 117 505 111 61 4850 539 76
shrinkage=0.03


Tree=32
num_leaves=10
num_cat=0
split_feature=49 66 62 66 51 68 65 60 60
split_gain=129.87638932872517 54.798894601450549 34.126918995617011 17.949470524346452 11.0934153748442 2.2567883678463971 1.6585674117057536 0.14652625022358734 25.708510638799638
threshold=0.10415214293880025 0.047207092253918649 0.10495736232469662 0.17421133596009869 0.078266911007469755 0.05031082305211753 0.017404168782386927 0.07267396016210638 0.08377945244859554
decision_type=10 10 2 10 10 10 2 10 10
left_child=3 6 -3 7 -5 -4 -2 -1 -9
right_child=1 2 5 4 -6 -7 -8 8 -10
leaf_value=-0.036918248808014822 0.0033588325162144162 -0.03955975730239978 -0.014970846720623932 -0.03898130831803058 0.017509860489943151 0.024189143598478617 -0.038258277352720825 -0.00036088804904364915 -0.036521893534530343
leaf_count=4263 20 73 23 57 27 76 230 114 639
internal_value=0 -0.063195313401166742 0.40753649880251264 -1.1469011986702025 -0.11583194361115179 0.67860761819647575 -1.0521633578673821 -1.1797485481233396 -0.93030197982682716
internal_count=5522 422 172 5100 84 99 250 5016 753
shrinkage=0.03


Tree=33
num_leaves=13
num_cat=0
split_feature=71 49 64 2 66 24 60 60 69 69 77 69
split_gain=126.0690740666837 61.147010897977722 31.823660208004025 14.233750553315431 10.964653313203826 6.7499638004839966 3.6601559035468654 21.280684106896572 18.693859075804347 10.329604316190302 1.4874021362789165 0.82248857103311934
threshold=0.1405164647696118 0.069257695859346366 0.068196734295700931 0.176928880780925 0.045105039177237398 0.061732592270530413 0.07267396016210638 0.08377945244859554 0.02846986519912836 0.063084462598532315 0.033286544890097185 0.12906034221652762
decision_type=10 10 10 8 8 10 10 10 10 8 8 10
left_child=6 -2 10 -4 -5 -6 -1 8 -8 -10 -3 -9
right_child=1 2 3 4 5 -7 7 11 9 -11 -12 -13
leaf_value=-0.036795991104026475 -0.033448427908444531 0.0045758228676545873 -0.045621101211758462 -0.040973472054778741 0.03456805250650493 0.0087649579771575167 -0.039819852095911282 -0.038020457219544543 0.033759507978748618 -0.04110575860130445 -0.040884119664775551 0.0027991691613055785
leaf_count=4199 372 20 29 28 38 82 66 516 26 23 103 20
internal_value=0 -0.21379434817705309 0.21098091233518187 0.49728482776169819 0.61588681087589892 0.72651073737270455 -1.1684028320480524 -0.85893364650164594 -0.020260239315858738 0.65618975945250912 -0.94544393616753231 -1.1695468468549799
internal_count=5522 672 300 177 148 120 4850 651 115 49 123 536
shrinkage=0.03


Tree=34
num_leaves=9
num_cat=0
split_feature=49 64 55 54 60 50 83 74
split_gain=122.30680708680006 48.815978172291423 14.240376185495997 13.034840616875044 19.002522354330864 11.372556738537597 7.2401550422175962 1.2202633575708219
threshold=0.10415214293880025 0.068196734295700931 0.31864428545673423 0.10535129860360255 0.057924738579883693 0.039806896533709252 0.17059853665141081 0.12567589016121619
decision_type=10 10 8 10 10 2 8 10
left_child=3 7 5 -1 -5 -3 -6 -2
right_child=1 2 -4 4 6 -7 -8 -9
leaf_value=-0.035040688695991994 -0.038745506848268788 -0.028437457848265561 -0.044320252692057249 -0.037446084491332049 -0.038289724481002541 0.020415071584674586 0.027507171991101233 0.0028335802730523798
leaf_count=4915 212 48 37 131 28 105 26 20
internal_value=0 -0.059361768238892845 0.37575040181870301 -1.1280156238506607 -0.39943196279324966 0.51421443763231878 0.43125007524865266 -1.0550819206619939
internal_count=5522 422 190 5100 185 153 54 232
shrinkage=0.03


Tree=35
num_leaves=11
num_cat=0
split_feature=71 50 19 64 54 17 60 63 27 67
split_gain=119.78438957957007 51.799480800274466 20.237103102563466 23.049289825697386 19.70436737390601 7.8595481657669097 57.839099046137491 6.3523929436011457 3.6337513071743253 2.2592537205351313
threshold=0.1405164647696118 0.086202137855204211 0.15628787415802822 0.011533176858875499 0.060908053596415219 0.0028071065468529212 0.07267396016210638 0.13986273299846361 0.15338466443198276 0.06856208686414407
decision_type=10 2 8 10 10 2 10 8 8 10
left_child=5 4 3 -3 -2 6 -1 -5 9 -6
right_child=1 2 -4 7 8 -7 -8 -9 -10 -11
leaf_value=-0.036671602574064349 -0.035819199036175732 -0.041048597217662568 -0.043784589305566675 -0.015130129354317349 -0.04122230890914106 -0.036367100510182694 0.021533804542357593 0.029228623301758461 -0.033322215730027471 0.018758636190517583
leaf_count=503 394 44 38 28 21 4311 36 57 42 48
internal_value=0 -0.20400563687189324 0.40065984193196869 0.58659129987525471 -0.76838027234613016 -1.1501892788889323 -0.75410673077184864 0.79929610329166145 -0.023240274460750214 0.3449407834363904
internal_count=5522 672 167 129 505 4850 539 85 111 69
shrinkage=0.03


Tree=36
num_leaves=12
num_cat=0
split_feature=71 49 66 62 24 60 60 27 19 53 69
split_gain=116.41950599643314 53.69573171665008 22.535529201472883 10.907939264245339 5.9200433864908888 3.6836914367638656 20.486270838286373 33.932354774763567 3.33984540707789 0.63423317152700776 0.27186013145997379
threshold=0.1405164647696118 0.069257695859346366 0.047207092253918649 0.10495736232469662 0.14152171961885493 0.07267396016210638 0.08377945244859554 0.083708866367178864 0.14045619762395525 0.034016133779444645 0.12906034221652762
decision_type=10 10 10 2 10 10 10 10 8 2 10
left_child=5 -2 9 -4 -5 -1 7 -7 -6 -3 -8
right_child=1 2 3 4 8 6 10 -9 -10 -11 -12
leaf_value=-0.036076594424214785 -0.032524684345462102 0.0063460082744928488 -0.027434408278488556 0.026193724031478502 0.0088679241316784157 -0.039460970469435017 -0.037330613572008051 0.031932596217572093 -0.046071381197178685 -0.038281388039958175 0.0029580311656674367
leaf_count=4199 372 20 52 67 35 87 516 28 20 106 20
internal_value=0 -0.20075498067968589 0.20293556837711099 0.45442925399677059 0.60871109679596735 -1.1419169655330335 -0.8241974520886467 0.01325689303665374 -0.068025153347711503 -0.85237074145478642 -1.1440015728793913
internal_count=5522 672 300 174 122 4850 651 115 55 126 536
shrinkage=0.03


Tree=37
num_leaves=12
num_cat=0
split_feature=71 49 64 12 62 19 17 27 34 69 26
split_gain=113.2554482320071 51.216530188922611 26.057024320128814 9.5409751570053665 19.56834667170304 10.154217284409285 7.5439411442895334 51.507823531036166 6.1069644083986176 0.53704375960295181 0.14274101256745908
threshold=0.1405164647696118 0.069257695859346366 0.068196734295700931 0.026257158557522652 0.19376771357605324 0.15628787415802822 0.0028071065468529212 0.083708866367178864 0.58542308101482443 0.12906034221652762 0.23308729523612479
decision_type=10 10 10 10 2 8 2 10 10 8 2
left_child=6 -2 10 8 -5 -6 7 9 -4 -1 -3
right_child=1 2 3 4 5 -7 -8 -9 -10 -11 -12
leaf_value=-0.037318228296462821 -0.032219315947311297 -0.039728357159033605 0.029852458220620409 -0.044998385552693233 0.026338254282420523 -0.041959058034547581 -0.0359113556649477 0.026543633168010245 -0.020150414917011607 0.0040521469513382542 0.0036327801356800049
leaf_count=480 372 103 51 59 26 21 4311 39 20 20 20
internal_value=0 -0.19742774932469109 0.1987729478735159 0.46708287085002897 -0.10499625731684611 0.46693487556354457 -1.1338071784091535 -0.7341453630844863 0.816652505832551 -1.134785042706421 -0.90821483914009438
internal_count=5522 672 300 177 106 47 4850 539 71 500 123
shrinkage=0.03


Tree=38
num_leaves=9
num_cat=0
split_feature=71 49 64 34 62 17 60 62
split_gain=110.03023198348353 48.841263719398611 24.566753692906076 10.896108252655406 23.025400033915183 7.4016293563735189 52.733544644577911 1.6695819537941432
threshold=0.1405164647696118 0.069257695859346366 0.011533176858875499 0.26102697143112358 0.21301142348237453 0.0028071065468529212 0.07267396016210638 0.081683836164093263
decision_type=10 10 10 10 2 2 10 2
left_child=5 -2 -3 7 -5 6 -1 -4
right_child=1 2 3 4 -6 -7 -8 -9
leaf_value=-0.036015857958367044 -0.031920324302975416 -0.038684828536424215 -0.018486537006934773 -0.048733147281544688 0.014642070185428582 -0.035694832196235801 0.020679153402695039 0.024016180916712124
leaf_count=503 372 88 33 66 37 4311 36 76
internal_value=0 -0.1943741072933933 0.19501823688801959 0.38902456544828201 -0.28902624783757708 -1.1258907122055108 -0.72465144138976245 0.67935107511559811
internal_count=5522 672 300 212 103 4850 539 109
shrinkage=0.03


Tree=39
num_leaves=9
num_cat=0
split_feature=71 49 64 19 50 66 17 60
split_gain=107.07324523721138 46.561509860105588 23.11922332056383 9.1086185626937137 8.2876902608608916 15.712121426664073 7.1717294435812846 50.529699938558551
threshold=0.1405164647696118 0.069257695859346366 0.011533176858875499 0.15628787415802822 0.086202137855204211 0.12895661892290716 0.0028071065468529212 0.07267396016210638
decision_type=10 10 10 8 2 10 2 10
left_child=6 -2 -3 4 5 -4 7 -1
right_child=1 2 3 -5 -6 -7 -8 -9
leaf_value=-0.035803444485644882 -0.031627249941437369 -0.038380660753078132 -0.042256358040224498 -0.022313987460789161 0.024463664975959643 0.019545647252319148 -0.035486874365901568 0.020092822273163159
leaf_count=503 372 88 63 51 73 25 4311 36
internal_value=0 -0.19125531203336749 0.19110982686438371 0.38072567718520411 0.54222989135466393 -0.18528677394578549 -1.1184473577549199 -0.71633185035561531
internal_count=5522 672 300 212 161 88 4850 539
shrinkage=0.03


Tree=40
num_leaves=8
num_cat=0
split_feature=67 49 14 50 64 66 66
split_gain=104.2697691337687 67.195713307756392 18.007676500175535 14.379499731490633 8.8066932107205531 2.1723851131491756 5.431171052213525
threshold=0.09092490880604738 0.069257695859346366 0.2490641789249354 0.053730176292992017 0.068196734295700931 0.11643619901457126 0.14227688470648286
decision_type=10 10 2 2 10 10 10
left_child=2 -2 5 -3 -5 -1 -7
right_child=1 3 -4 4 -6 6 -8
leaf_value=-0.034706783382035852 -0.035744867684161921 -0.024258213591343954 0.01092280734997764 -0.042479979036798281 0.020021370527139874 0.0042038605091043648 -0.038018950813203979
leaf_count=4743 354 87 38 25 113 60 102
internal_value=0 -0.13114304401781904 -1.0975242540000048 0.35458334790901147 0.55847720229439179 -1.1262829746281751 -0.51772267868425748
internal_count=5522 579 4943 225 138 4905 162
shrinkage=0.03


Tree=41
num_leaves=8
num_cat=0
split_feature=71 49 66 17 60 26 24
split_gain=101.771098105031 42.30420094505606 17.124404574143217 7.2144415604343521 48.040451992446982 6.3028299644056212 20.684464861685321
threshold=0.1405164647696118 0.069257695859346366 0.047207092253918649 0.0028071065468529212 0.07267396016210638 0.23308729523612479 0.052928605530909376
decision_type=10 10 10 2 10 2 10
left_child=3 -2 -3 4 -1 6 -4
right_child=1 2 5 -5 -6 -7 -8
leaf_value=-0.035411607158786593 -0.031043026995307269 -0.024552967299154578 0.020277352850456391 -0.035104834071393518 0.019757635573460788 0.026069910326117839 -0.026954937580984641
leaf_count=503 372 126 51 4311 36 44 79
internal_value=0 -0.1836169037179991 0.18468745749295404 -1.103737327546723 -0.69396426537987976 0.41687746773309642 0.035575635976130789
internal_count=5522 672 300 4850 539 174 130
shrinkage=0.03


Tree=42
num_leaves=9
num_cat=0
split_feature=67 49 14 50 64 54 30 30
split_gain=98.624146335513387 61.914295009847116 16.920464608714497 12.480321742599322 7.7048064781018226 5.0947328882293732 0.12329110163783596 0.26548269336869446
threshold=0.09092490880604738 0.069257695859346366 0.2490641789249354 0.053730176292992017 0.068196734295700931 0.10535129860360255 0.066487587131972878 0.13874904201507171
decision_type=10 10 2 2 10 10 10 8
left_child=2 -2 5 -3 -5 -1 -7 -8
right_child=1 3 -4 4 -6 6 7 -9
leaf_value=-0.034492260971161627 -0.035365921110387513 -0.023653773166559311 0.01073787324705221 -0.042059781731275135 0.019340337609048897 -0.036139846995977901 0.0079341701139713002 -0.041289900626243825
leaf_count=4718 354 87 38 25 113 96 60 31
internal_value=0 -0.12584292859551202 -1.0822822341121314 0.34197156211110924 0.53871456879663004 -1.1116549286411985 -0.47617308442401618 -0.082116300677412907
internal_count=5522 579 4943 225 138 4905 187 91
shrinkage=0.03


Tree=43
num_leaves=11
num_cat=0
split_feature=71 49 64 17 27 66 55 24 62 51
split_gain=96.996279969632837 38.31313491037892 18.847212598720745 7.2467853238415501 46.140629145436534 7.1166978232925082 5.8729429078505078 3.3049747045772193 28.623651585657228 0.34623202038173417
threshold=0.1405164647696118 0.069257695859346366 0.011533176858875499 0.0028071065468529212 0.083708866367178864 0.045686600720837307 0.31864428545673423 0.061732592270530413 0.19376771357605324 0.17339242050380391
decision_type=10 10 10 2 10 8 8 10 2 10
left_child=3 9 -3 4 -1 -4 7 -7 -9 -2
right_child=1 2 5 -5 -6 6 -8 8 -10 -11
leaf_value=-0.032885945971505098 -0.035387782761817546 -0.037513661333793323 -0.039726395341124404 -0.034751468520058414 0.02657841861301467 0.028110403302710623 -0.046713689406885084 -0.049064289194427999 0.018424415631967249 0.0088547264095501978
leaf_count=500 338 88 36 4311 39 51 22 51 52 34
internal_value=0 -0.17614202660907913 0.17744858731773197 -1.0899028091447633 -0.67242155352402078 0.35389349923712771 0.45398668609769049 0.53605713457993132 0.1769260850328902 -1.0159039864409789
internal_count=5522 672 300 4850 539 212 176 154 103 372
shrinkage=0.03


Tree=44
num_leaves=10
num_cat=0
split_feature=71 49 64 19 17 60 66 50 51
split_gain=94.266635262903378 36.467068622455344 17.681249408284927 7.4083090801138312 7.2051116359382377 44.888726907467728 5.9994598666608709 3.1780835688531752 0.1372960379851591
threshold=0.1405164647696118 0.069257695859346366 0.011533176858875499 0.15628787415802822 0.0028071065468529212 0.07267396016210638 0.045105039177237398 0.086202137855204211 0.17339242050380391
decision_type=10 10 10 8 2 10 8 2 10
left_child=4 8 -3 6 5 -1 -4 -8 -2
right_child=1 2 3 -5 -6 -7 7 -9 -10
leaf_value=-0.034914530841421931 -0.035202052135353538 -0.037258343855580175 -0.040008338604458141 -0.022291006228829797 -0.034579659939483351 0.019415308228717589 -0.001931567176551514 0.025202618393630732 0.0085376121065308275
leaf_count=503 338 88 28 51 4311 36 70 63 34
internal_value=0 -0.17353936779902615 0.17415934592377202 0.34693914170177087 -1.0831236239360906 -0.66306038571199422 0.50533375856415785 0.60415783927793498 -1.0070983544053078
internal_count=5522 672 300 212 4850 539 161 133 372
shrinkage=0.03


Tree=45
num_leaves=11
num_cat=0
split_feature=71 49 64 24 19 19 66 60 60 27
split_gain=91.906549885026493 34.699640766105411 16.738073005400754 8.9181903985591546 7.9365783988982788 5.7135914092467495 4.7910200519182098 3.4456920954517045 17.079282423794865 26.456400044375435
threshold=0.1405164647696118 0.069257695859346366 0.068196734295700931 0.061732592270530413 0.15628787415802822 0.015956595334065082 0.13144259797701904 0.07267396016210638 0.08377945244859554 0.083708866367178864
decision_type=10 10 10 10 8 10 10 10 10 10
left_child=7 -2 -3 -4 5 -5 -7 -1 9 -9
right_child=1 2 3 4 -6 6 -8 8 -10 -11
leaf_value=-0.034364122237509891 -0.029953810369134928 -0.025418867469869228 0.026435859177988179 -0.036583052269183229 -0.042418643495752778 -0.014540201716525751 0.028674239345798946 -0.038119007200206438 -0.032359411883969347 0.03105038697106955
leaf_count=4199 372 123 56 20 40 41 20 87 536 28
internal_value=0 -0.17067948816598708 0.17060524871526977 0.40506934504219877 -0.031280544205526152 0.24174066501383087 0.51276622076346134 -1.0769511862978809 -0.73561419133066719 0.085745700797414115
internal_count=5522 672 300 177 121 81 61 4850 651 115
shrinkage=0.03


Tree=46
num_leaves=11
num_cat=0
split_feature=71 49 20 66 17 69 60 26 24 51
split_gain=89.649839667589504 32.992989053596347 12.396435561632854 9.2078207122840894 7.0463968976856677 42.092177159404592 16.035847006923163 3.1145580609560675 19.531893148975065 0.1593934745758645
threshold=0.1405164647696118 0.069257695859346366 0.26511842286843562 0.045105039177237398 0.0028071065468529212 0.02846986519912836 0.062892586743193007 0.23308729523612479 0.05149471823191467 0.17339242050380391
decision_type=10 10 8 8 2 10 10 2 8 10
left_child=4 9 3 -3 5 -1 -7 8 -5 -2
right_child=1 2 -4 7 -6 6 -8 -9 -10 -11
leaf_value=-0.035786842604118414 -0.034876599538382458 -0.038145340967519585 -0.039125875082662534 0.020519274574807154 -0.034259049780115583 -0.034920216076170338 0.034065888544287791 0.025573249825278088 -0.025239719804314581 0.0093081506930320738
leaf_count=463 338 50 67 57 4311 56 20 42 84 34
internal_value=0 -0.16769395957643279 0.16701330925503313 0.30410233410745785 -1.0706302576456568 -0.64480828651998623 0.53555342585797561 0.42411268210998443 0.099738431828094776 -0.9897132149454686
internal_count=5522 672 300 233 4850 539 76 183 141 372
shrinkage=0.03


Tree=47
num_leaves=11
num_cat=0
split_feature=71 49 64 17 69 60 19 66 50 29
split_gain=87.490589927861038 31.362551204404355 15.017350261517214 6.7454479032237487 40.325920631422235 14.791458967251575 5.4255694705836106 4.550020440956164 2.3695128881176046 0.18002059870797638
threshold=0.1405164647696118 0.069257695859346366 0.011533176858875499 0.0028071065468529212 0.02846986519912836 0.062892586743193007 0.15628787415802822 0.045105039177237398 0.086202137855204211 0.092139861237003254
decision_type=10 10 10 2 10 10 8 8 2 2
left_child=3 9 -3 4 -1 -6 7 -4 -9 -2
right_child=1 2 6 -5 5 -7 -8 8 -10 -11
leaf_value=-0.035606969222871418 0.0097560099322918648 -0.036716369422861682 -0.039368558446996237 -0.034105187735789529 -0.034752813201876287 0.033252048940748603 -0.021311770351211189 -0.002268007423467347 0.024212480695415366 -0.034722313597190524
leaf_count=463 34 88 28 4311 56 20 51 70 63 338
internal_value=0 -0.16492929163921191 0.16359074241223323 -1.0650721421423683 -0.63880708462012414 0.52526267678506611 0.32755495507622268 0.47866973681731401 0.57330417267133871 -0.9813334506302096
internal_count=5522 672 300 4850 539 76 212 161 133 372
shrinkage=0.03


Tree=48
num_leaves=9
num_cat=0
split_feature=71 49 64 24 17 27 66 51
split_gain=85.40007577917936 29.796803745220505 14.038345379244994 7.4737364519018854 6.4508562464358192 38.558901667523017 3.5611793500653643 0.013143050057394134
threshold=0.1405164647696118 0.069257695859346366 0.068196734295700931 0.061732592270530413 0.0028071065468529212 0.083708866367178864 0.14057967637812599 0.17339242050380391
decision_type=10 10 10 10 2 10 10 10
left_child=4 7 -3 -4 5 -1 -5 -2
right_child=1 2 3 6 -6 -7 -8 -9
leaf_value=-0.031824685427810306 -0.034568381714564493 -0.024765495795801132 0.025455851136095865 -0.024325032973907031 -0.03395679525767039 0.025078129195414651 0.010180323305596541 0.0095151004305866933
leaf_count=500 338 123 56 72 4311 39 49 34
internal_value=0 -0.16220486036413986 0.16024561397727027 0.38416894788595657 -1.05968603324245 -0.63293925918090299 -0.039863181254146909 -0.97307317408480654
internal_count=5522 672 300 177 4850 539 121 372
shrinkage=0.03


Tree=49
num_leaves=9
num_cat=0
split_feature=61 50 64 83 12 74 54 14
split_gain=83.570042353022302 38.810432957928647 14.976279475119812 6.7784584150080036 5.3311611174427291 8.4605308737974632 3.3642144261510794 2.2532150640702184
threshold=0.092836368878368894 0.053730176292992017 0.068196734295700931 0.14658722274192146 0.026257158557522652 0.10994878492855183 0.10535129860360255 0.2490641789249354
decision_type=10 2 10 10 10 10 10 2
left_child=3 6 -3 7 -4 -6 -2 -1
right_child=1 2 4 -5 5 -7 -8 -9
leaf_value=-0.033165290436951191 -0.033329230554139555 -0.024290076213901491 0.021275223194399694 0.022926377972366227 -0.037401509401672264 0.013442137141202631 0.007142452180898087 0.0089285193919003952
leaf_count=4673 470 126 78 21 61 33 36 24
internal_value=0 -0.20884956746577829 0.19656384072839383 -1.0695429324637138 0.42728651216465818 -0.19417718396733319 -0.92255357691991458 -1.0877423257459966
internal_count=5522 804 298 4718 172 94 506 4697
shrinkage=0.03


Tree=50
num_leaves=11
num_cat=0
split_feature=71 49 68 24 17 60 26 26 61 29
split_gain=81.592286106984091 26.961945092953275 10.970836498141294 7.3268183971584122 6.7723878960620141 37.863779476163366 5.4561495148425081 8.8401373226527813 0.85467955879040325 0.14426440352120551
threshold=0.1405164647696118 0.069257695859346366 0.07297508963634905 0.037254888976950791 0.0028071065468529212 0.07267396016210638 0.23308729523612479 0.19552930349788378 0.16350562800182081 0.092139861237003254
decision_type=10 10 10 8 2 10 2 2 8 2
left_child=4 9 3 8 5 -1 7 -4 -3 -2
right_child=1 2 6 -5 -6 -7 -8 -9 -10 -11
leaf_value=-0.034043488293832254 0.010667104873571866 -0.041842699657603032 0.0070323670191524759 -0.040956148855891987 -0.033686018519744829 0.018333061917346957 0.02597749510761365 -0.056574450587350361 0.020718655010239846 -0.034297629208133618
leaf_count=503 34 21 85 107 4311 36 43 24 20 338
internal_value=0 -0.15497195866694105 0.15541030534757225 -0.58599562849022668 -1.0475596450257569 -0.60979715876009544 0.41957494314862481 -0.01906226063117536 0.20453287963900796 -0.9567641218647539
internal_count=5522 672 300 148 4850 539 152 109 41 372
shrinkage=0.03


Tree=51
num_leaves=8
num_cat=0
split_feature=71 49 64 17 60 19 66
split_gain=79.627734635540946 25.563678086883044 12.007853910517904 6.5842727377495294 36.253151000908701 4.2730271399807656 2.7201620496455732
threshold=0.1405164647696118 0.069257695859346366 0.011533176858875499 0.0028071065468529212 0.07267396016210638 0.20709159974667229 0.045105039177237398
decision_type=10 10 10 2 10 8 8
left_child=3 -2 -3 4 -1 6 -4
right_child=1 2 5 -5 -6 -7 -8
leaf_value=-0.033908594828313224 -0.028464206202212097 -0.036067055871819194 -0.03922635657534309 -0.033552239435483862 0.017826851901707678 -0.037297206795626869 0.014551943957510027
leaf_count=503 372 88 28 4311 36 32 152
internal_value=0 -0.15240678820145601 0.15216035471441114 -1.0423087378235023 -0.60310377605514853 0.30536888511494231 0.4021001435894167
internal_count=5522 672 300 4850 539 212 180
shrinkage=0.03


Tree=52
num_leaves=10
num_cat=0
split_feature=61 50 64 83 24 49 54 14 59
split_gain=78.011128328065467 34.033520593474591 12.572645022711413 6.5731449960090913 5.3289783998716942 15.038743328950373 2.9891599090987171 1.8858618353993961 0.045685538667918024
threshold=0.092836368878368894 0.053730176292992017 0.011533176858875499 0.14658722274192146 0.14152171961885493 0.21357253846833826 0.10535129860360255 0.2490641789249354 0.066760096525772736
decision_type=10 2 10 10 10 10 10 2 10
left_child=3 6 -3 7 8 -6 -2 -1 -4
right_child=1 2 4 -5 5 -7 -8 -9 -10
leaf_value=-0.032731731284527325 -0.032902597980402661 -0.036011060855323546 -0.010854745372483871 0.023407822803766559 -0.052494774878808721 0.011639196109622952 0.0075040108291914813 0.0092532327762471448 0.022095764542641182
leaf_count=4673 470 87 46 21 47 32 36 24 86
internal_value=0 -0.1976673299800154 0.18899172439577602 -1.0530552695316324 0.34441624237715929 -0.33666634223176345 -0.90045807939108391 -1.0724222943591584 0.58381315225019181
internal_count=5522 804 298 4718 211 79 506 4697 132
shrinkage=0.03


Tree=53
num_leaves=10
num_cat=0
split_feature=32 62 17 54 49 25 27 64 17
split_gain=76.06271361840129 31.68724322582797 22.400291901130178 13.89576583058215 6.3369167267261801 15.510564990021132 6.1487557477456569 3.9807921570962517 3.2828863568611037
threshold=0.058989926875694369 0.23359949817584322 0.0018481841466100118 0.2077676655505572 0.1053899681696446 0.16945872164321282 0.14165448263507749 0.1406030705079892 0.071058296402368271
decision_type=10 2 2 10 10 8 10 8 2
left_child=3 2 -2 -1 -4 8 -3 -5 -6
right_child=1 6 4 7 5 -7 -8 -9 -10
leaf_value=-0.031877622254470807 0.03124169304160139 -0.039515695812285756 -0.031913025911070397 0.020873060372681475 -0.0426077042755795 -0.060715528991923527 0.027885912115840336 -0.053800507021099724 0.017644766397849711
leaf_count=4803 21 24 481 31 29 28 39 22 44
internal_value=0 -0.11708135910068844 -0.48230200160527159 -1.0229108815546328 -0.70889906123612545 -0.14536814056292879 0.73402494692554465 0.22832062968487868 0.2848533395279827
internal_count=5522 666 603 4856 582 101 63 53 73
shrinkage=0.03


Tree=54
num_leaves=9
num_cat=0
split_feature=61 56 55 26 64 64 83 14
split_gain=74.240153450978426 28.829944973298272 18.49182127184892 10.554489784688329 10.73434056392434 12.465894583763349 6.268837624845446 2.0652231821085252
threshold=0.092836368878368894 0.034338317853457832 0.15979464174037619 0.23308729523612479 0.082083254316801899 0.19184893789985349 0.14658722274192146 0.2490641789249354
decision_type=10 10 10 2 10 10 10 2
left_child=6 2 -2 4 -3 -6 7 -1
right_child=1 3 -4 -5 5 -7 -8 -9
leaf_value=-0.032432853732643978 -0.034704043335698834 -0.038085928947795167 0.02010272718739874 0.022989340723985334 0.012042933534140217 -0.050905905060067112 0.023362225170378007 0.0099746629190075979
leaf_count=4673 484 109 30 50 98 33 21 24
internal_value=0 -0.19009621664094672 -0.83413950467522047 0.19291528007851919 -0.17023854978951175 0.14186007070084972 -1.0413174476395184 -1.0614169270548519
internal_count=5522 804 514 290 240 131 4718 4697
shrinkage=0.03


Tree=55
num_leaves=10
num_cat=0
split_feature=61 56 27 26 64 64 83 14 59
split_gain=72.287825823330877 27.348487194653032 12.271362039485325 9.5563466661227476 9.9990421663811944 11.425389293722892 5.7798766281179041 1.8145601352234735 0.1778805262179084
threshold=0.092836368878368894 0.034338317853457832 0.02624867746786121 0.23308729523612479 0.082083254316801899 0.19184893789985349 0.14658722274192146 0.2490641789249354 0.13341019787944849
decision_type=10 10 8 2 10 8 10 2 10
left_child=6 2 8 4 -3 -6 7 -1 -2
right_child=1 3 -4 -5 5 -7 -8 -9 -10
leaf_value=-0.032275371856295733 -0.035093330562524103 -0.037847634335812973 -0.034635462638043325 0.022539827700767661 0.011715949104885761 -0.050218000501787236 0.022432802110494768 0.0096561364879573543 0.026750098811687332
leaf_count=4673 33 109 460 50 98 33 21 24 21
internal_value=0 -0.18713291326036269 -0.82696597070709665 0.18887794001558125 -0.16671933422854743 0.13819849565387807 -1.0354699284536166 -1.0558601564455807 0.3563222555293466
internal_count=5522 804 514 290 240 131 4718 4697 54
shrinkage=0.03


Tree=56
num_leaves=10
num_cat=0
split_feature=32 62 17 51 54 55 49 17 27
split_gain=70.720297604058317 26.179067620734337 20.803906986086634 14.405260137858818 8.2566830281947894 5.5802256638242458 5.3499981285718619 10.675723370057531 5.0887823510964481
threshold=0.058989926875694369 0.23359949817584322 0.0018481841466100118 0.13534389703496791 0.2077676655505572 0.19155998581670289 0.1053899681696446 0.071058296402368271 0.14165448263507749
decision_type=10 2 2 10 8 8 10 2 10
left_child=3 2 -2 -1 -5 -6 -4 -8 -3
right_child=1 8 6 4 5 -7 7 -9 -10
leaf_value=-0.032182997148984531 0.031187004611089517 -0.03928323814478428 -0.031366854292760697 -0.031249874501579327 0.025944399399459313 -0.041971436695781926 -0.05450497533650793 0.0078758226223113719 0.026822599019776423
leaf_count=4652 21 24 481 129 40 35 40 61 39
internal_value=0 -0.1063203291228763 -0.45543737570274129 -1.0055542325695215 -0.19527831228826598 0.43313467030039704 -0.68528003581517494 -0.13695078775812863 0.7005512558136574
internal_count=5522 666 603 4856 204 75 582 101 63
shrinkage=0.03


Tree=57
num_leaves=9
num_cat=0
split_feature=32 62 17 51 66 67 27 23
split_gain=68.611341633799498 24.567288022525041 19.393091181433832 13.944414061699774 6.936686325850614 5.4370401311665812 4.4349927787810159 4.0245802737442276
threshold=0.058989926875694369 0.23359949817584322 0.0018481841466100118 0.13534389703496791 0.1582644544333455 0.164168996326119 0.14165448263507749 0.20801940109526401
decision_type=10 2 2 10 8 8 10 10
left_child=3 2 -2 -1 -5 -6 -3 -4
right_child=1 6 7 4 5 -7 -8 -9
leaf_value=-0.032026724374823137 0.030514983528726045 -0.038975094326367497 -0.027068965237431439 -0.030012312820885633 0.024887874527655091 -0.047101830829613958 0.026381304578978686 0.0040208067374630091
leaf_count=4652 21 24 519 134 40 30 39 63
internal_value=0 -0.10478416664686473 -0.448709854151632 -0.9997701010970691 -0.19215273348400772 0.42655982217085947 0.68952839833377488 -0.67579070791089269
internal_count=5522 666 603 4856 204 70 63 582
shrinkage=0.03


Tree=58
num_leaves=11
num_cat=0
split_feature=61 50 64 48 48 15 14 54 19 59
split_gain=66.732092437097208 25.487528301730151 8.8106171014896439 3.4071657576252505 6.6108912497146104 3.4999366671816006 3.9912698836537857 2.914487587164075 2.6963940500980215 0.15990677624271754
threshold=0.092836368878368894 0.053730176292992017 0.011533176858875499 0.1203396660609041 0.12723448813533511 0.22478143046644258 0.2490641789249354 0.10535129860360255 0.20709159974667229 0.066760096525772736
decision_type=10 2 10 10 10 10 2 10 8 10
left_child=3 7 -3 5 -5 6 -1 -2 9 -4
right_child=1 2 8 4 -6 -7 -8 -9 -10 -11
leaf_value=-0.033103675383070796 -0.032189653733005613 -0.035200121898738203 -0.014842286619355667 0.024784909585008109 -0.027466778616510857 0.037929664054278306 0.014145720348897 0.0092508064033764437 -0.036223068350469519 0.016390292208519487
leaf_count=4503 470 87 58 21 153 20 21 36 32 121
internal_value=0 -0.1780419890184656 0.17464362993621108 -1.0185798497482841 -0.29048834945333957 -1.0642465036133897 -1.0795260386184595 -0.85496182518038089 0.3174350452498324 0.41165823369381987
internal_count=5522 804 298 4718 174 4544 4524 506 211 179
shrinkage=0.03


Tree=59
num_leaves=9
num_cat=0
split_feature=32 62 17 51 54 55 17 27
split_gain=65.568994676991622 22.127492277603757 17.738490835888303 13.372537634249454 6.6778778165873973 4.1554205468046188 4.0532870660146827 3.6592005149243576
threshold=0.058989926875694369 0.23359949817584322 0.0018481841466100118 0.13534389703496791 0.2077676655505572 0.19155998581670289 0.060007674033651655 0.14165448263507749
decision_type=10 2 2 10 8 8 2 10
left_child=3 2 -2 -1 -5 -6 -4 -3
right_child=1 7 6 4 5 -7 -8 -9
leaf_value=-0.031763715779504612 0.030010147337630966 -0.038703492822499942 -0.039334905617085157 -0.030564860015892172 0.024891719865160915 -0.041801345261962379 -0.011081991090152808 0.025866893236151926
leaf_count=4652 21 24 235 129 40 35 347 39
internal_value=0 -0.098283515836391694 -0.43455050839584214 -0.98935222635944664 -0.18133825713808494 0.42274590243908938 -0.65929860304870391 0.67621915338225425
internal_count=5522 666 603 4856 204 75 582 63
shrinkage=0.03


Tree=60
num_leaves=9
num_cat=0
split_feature=32 49 51 62 66 26 28 67
split_gain=63.866399942272324 21.734196500591473 12.933192663942407 5.5533206102913901 5.4345656090857162 4.9965224795852308 5.0106970670586843 4.1149634904191039
threshold=0.058989926875694369 0.069257695859346366 0.13534389703496791 0.23359949817584322 0.1582644544333455 0.19552930349788378 0.082225289428622131 0.164168996326119
decision_type=10 10 10 2 8 2 10 8
left_child=2 -2 -1 5 -4 6 -3 -6
right_child=1 3 4 -5 7 -7 -8 -9
leaf_value=-0.031613297749775039 -0.024202068547729744 -0.035698342515380531 -0.029324881697389105 0.023224147908857913 0.023887281485909372 -0.050770766517124498 0.011504746140649592 -0.04710066742033777
leaf_count=4652 451 69 134 44 40 31 71 30
internal_value=0 -0.096462557961187773 -0.98372926184294507 0.26980981066299314 -0.17841405304675659 -0.11338415853983909 0.094293729812719745 0.41532060360549633
internal_count=5522 666 4856 215 204 171 140 70
shrinkage=0.03


Tree=61
num_leaves=9
num_cat=0
split_feature=32 49 51 54 54 62 26 55
split_gain=62.113238881762754 20.357495168331958 12.512084576126824 9.9543444531220473 5.3696591827520592 4.8227499189079968 4.3466744117518843 3.0009263105670811
threshold=0.058989926875694369 0.069257695859346366 0.13534389703496791 0.10535129860360255 0.2077676655505572 0.23359949817584322 0.19552930349788378 0.19155998581670289
decision_type=10 10 10 10 8 2 2 8
left_child=2 3 -1 -2 -4 6 -3 -6
right_child=1 5 4 -5 7 -7 -8 -9
leaf_value=-0.031464374016958903 -0.033056526784958087 0.0027617446175306477 -0.029998376860599727 0.024165134711322173 0.023722937976011091 0.022795420776193086 -0.050060880575262957 -0.041497013827616273
leaf_count=4652 421 140 129 30 40 44 31 35
internal_value=0 -0.094801741227533806 -0.97812260117935579 -0.79648584661912813 -0.17547416719151976 0.26426515696942404 -0.11099803391862247 0.40499696552584014
internal_count=5522 666 4856 451 204 215 171 75
shrinkage=0.03


Tree=62
num_leaves=8
num_cat=0
split_feature=61 50 64 24 48 48 15
split_gain=60.235291039802178 20.784046309082463 6.9879556705217691 4.0575505189273073 4.0512749247564557 6.1089474702259938 3.5563529113227332
threshold=0.092836368878368894 0.053730176292992017 0.011533176858875499 0.14152171961885493 0.1203396660609041 0.12723448813533511 0.22478143046644258
decision_type=10 2 10 10 10 10 10
left_child=4 -2 -3 -4 6 -6 -1
right_child=1 2 3 -5 5 -7 -8
leaf_value=-0.031925447627743929 -0.024769722359196229 -0.034901244757953483 0.016318828552700702 -0.011334115131575773 0.025806987780543106 -0.026617814314643141 0.039278883046182544
leaf_count=4524 506 87 132 79 21 153 20
internal_value=0 -0.16640028302325324 0.16458158469982176 0.30078118197756176 -0.99714150213055963 -0.23168151271682502 -1.047398843717531
internal_count=5522 804 298 211 4718 174 4544
shrinkage=0.03


Tree=63
num_leaves=11
num_cat=0
split_feature=32 49 51 54 54 26 26 26 14 55
split_gain=59.61640860503627 18.375937130073382 11.967925424002487 9.2222851769868015 4.5762124532334276 3.2606681018071839 3.4454230409548998 5.3143022235629331 2.7431267222401061 2.2984113945608939
threshold=0.058989926875694369 0.069257695859346366 0.13534389703496791 0.10535129860360255 0.2077676655505572 0.23308729523612479 0.12076814800409909 0.063872663034227159 0.2490641789249354 0.19155998581670289
decision_type=10 10 10 10 8 2 2 2 2 8
left_child=2 3 8 -2 -4 6 7 -3 -1 -6
right_child=1 5 4 -5 9 -7 -8 -9 -10 -11
leaf_value=-0.031995785560430187 -0.032888259795240425 -0.034915107363716683 -0.029581964410899636 0.023719690045582605 0.023270249409549474 0.021884025917741131 -0.020931395762110977 0.024089418321899606 0.010479942353151384 -0.041352340270097203
leaf_count=4624 421 49 129 30 40 45 89 32 28 35
internal_value=0 -0.087489295618767962 -0.96768619485982421 -0.78400449032834663 -0.16517967772032066 0.25815227308625338 -0.099007642742866012 0.40210803808635132 -1.040082077464511 0.40234019705098045
internal_count=5522 666 4856 451 204 215 170 81 4652 75
shrinkage=0.03


Tree=64
num_leaves=6
num_cat=0
split_feature=32 49 59 62 26
split_gain=57.945617964317535 17.253093997471993 9.2024498029982738 3.394939461213518 3.5562500214363908
threshold=0.058989926875694369 0.069257695859346366 0.28849646380459198 0.23359949817584322 0.19552930349788378
decision_type=10 10 8 2 2
left_child=2 -2 -1 4 -3
right_child=1 3 -4 -5 -6
leaf_value=-0.029834276994373521 -0.023329179573324508 0.0027723838299883769 0.020107933778461845 0.02195205328739986 -0.049170433897786886
leaf_count=4835 451 140 21 44 31
internal_value=0 -0.086081451954863636 -0.96259444522153681 0.25267989425743992 -0.10542067973013067
internal_count=5522 666 4856 215 171
shrinkage=0.03


Tree=65
num_leaves=11
num_cat=0
split_feature=61 50 83 24 64 14 54 48 48 64
split_gain=56.229541960010124 17.405159084741765 6.2042074260423874 5.7399432687707943 6.0644922437639437 4.1094823476998386 3.2356984649169291 2.3911826268547429 9.1224972415822236 1.2572553714118939
threshold=0.092836368878368894 0.053730176292992017 0.14658722274192146 0.14152171961885493 0.18426086646089831 0.2490641789249354 0.10535129860360255 0.1203396660609041 0.12723448813533511 0.011533176858875499
decision_type=10 2 10 10 10 2 10 10 10 10
left_child=2 6 5 9 -5 7 -2 -1 -9 -3
right_child=1 3 -4 4 -6 -7 -8 8 -10 -11
leaf_value=-0.03249675478725484 -0.031435652654514 -0.034291619902021765 0.02665224987841305 -0.039571359012047218 0.0075284291130162124 0.015797773450643288 0.011687035910542565 0.026334856074806498 -0.033576165554476033 0.015852492005972739
leaf_count=4506 470 45 21 91 30 24 36 21 146 132
internal_value=0 -0.15613377714322044 -0.98135644671853983 0.15683946355444325 -0.49958608189970549 -1.0068984146149342 -0.79842201810048785 -1.0343859598236618 -0.2628325577832627 0.41842566698119127
internal_count=5522 804 4718 298 121 4697 506 4673 167 177
shrinkage=0.03


Tree=66
num_leaves=8
num_cat=0
split_feature=32 49 51 66 62 26 14
split_gain=55.297511274525107 15.22436300551183 11.82008036994182 3.2116528475340598 2.6885912137742594 2.9019984539510233 2.6103999515941609
threshold=0.058989926875694369 0.069257695859346366 0.13534389703496791 0.1582644544333455 0.23359949817584322 0.19552930349788378 0.2490641789249354
decision_type=10 10 10 8 2 2 2
left_child=2 -2 6 -4 5 -3 -1
right_child=1 4 3 -5 -6 -7 -8
leaf_value=-0.031691215329750402 -0.022841005497680596 0.0026526249521149231 -0.027948636355073126 0.012434080394435032 0.021494412785624611 -0.048521747527303302 0.01063162943240561
leaf_count=4624 451 140 134 70 44 31 28
internal_value=0 -0.08029019089983537 -0.9517367449849532 -0.13804210493816443 0.24511615787699903 -0.10440140991044426 -1.0279995614277555
internal_count=5522 666 4856 204 215 171 4652
shrinkage=0.03


Tree=67
num_leaves=9
num_cat=0
split_feature=32 49 51 54 54 26 26 26
split_gain=53.900248516252191 14.100836702144322 11.530081084133712 9.0540702784167628 3.1638704160626574 1.5323351019798128 2.2537268881092096 4.3099699326814402
threshold=0.058989926875694369 0.069257695859346366 0.13534389703496791 0.10535129860360255 0.2077676655505572 0.23308729523612479 0.12076814800409909 0.063872663034227159
decision_type=10 10 10 10 8 2 2 2
left_child=2 3 -1 -2 -4 6 7 -3
right_child=1 5 4 -5 -6 -7 -8 -9
leaf_value=-0.030712802157636988 -0.032602353253286177 -0.034698591604412944 -0.02863028685363225 0.02452814109625041 0.012084941051372788 0.02070519305767396 -0.020080389244894636 0.023342882898402504
leaf_count=4652 421 49 129 30 75 45 89 32
internal_value=0 -0.078665314842446654 -0.94641407863310123 -0.75111919471434863 -0.13519457466821044 0.23921973605710811 -0.094827172725678421 0.39015269498065819
internal_count=5522 666 4856 451 204 215 170 81
shrinkage=0.03


Tree=68
num_leaves=7
num_cat=0
split_feature=32 50 51 14 54 17
split_gain=52.261733469231928 12.920308918270642 11.231183306593323 2.7952725493816502 2.5970327413208381 1.47119370191073
threshold=0.058989926875694369 0.039806896533709252 0.13534389703496791 0.2490641789249354 0.2077676655505572 0.003868478127638179
decision_type=10 2 10 2 8 2
left_child=2 -2 3 -1 -4 -3
right_child=1 5 4 -5 -6 -7
leaf_value=-0.031471601786112434 -0.025245366555250132 0.030238460553040657 -0.02835170472438546 0.011289954160160286 0.011726672510716114 0.0006368986558985243
leaf_count=4624 372 24 129 28 75 270
internal_value=0 -0.077382152969061743 -0.9406250408120187 -1.0190277826251166 -0.13233863727873416 0.19208934721876808
internal_count=5522 666 4856 4652 204 294
shrinkage=0.03


Tree=69
num_leaves=11
num_cat=0
split_feature=61 50 83 24 64 14 48 48 54 64
split_gain=51.32943441467728 13.620844488495253 5.8441491792848979 4.952348299401633 4.8541628499192875 3.7208876834856142 3.1652312007757359 8.6198806694352346 3.109628868923501 0.16600770326193981
threshold=0.092836368878368894 0.053730176292992017 0.14658722274192146 0.14152171961885493 0.18426086646089831 0.2490641789249354 0.1203396660609041 0.12723448813533511 0.10535129860360255 0.011533176858875499
decision_type=10 2 10 10 10 2 10 10 10 10
left_child=2 8 5 9 -5 6 -1 -8 -2 -3
right_child=1 3 -4 4 -6 -7 7 -9 -10 -11
leaf_value=-0.032217046385053669 -0.030977156052105461 -0.033945288747763487 0.026999496333867286 -0.039168163708481141 0.0067923853287556023 0.015624153159831749 0.027335056950112603 -0.033249694685891847 0.012538476915905816 0.015337025011697588
leaf_count=4506 470 45 21 91 30 24 21 146 36 132
internal_value=0 -0.1433538615961252 -0.96194751457982508 0.14767403354274422 -0.5010516827693825 -0.98965090606800787 -1.0196643523020696 -0.20173079441347794 -0.76592601166315644 0.4071180153057381
internal_count=5522 804 4718 298 121 4697 4673 167 506 177
shrinkage=0.03


Tree=70
num_leaves=8
num_cat=0
split_feature=32 49 48 67 54 17 62
split_gain=50.108913189812938 11.990996709254832 9.5438147646571565 16.499990471000665 8.0012068364276665 3.5711995325609003 1.5351641605990238
threshold=0.058989926875694369 0.069257695859346366 0.1203396660609041 0.099354401403605061 0.10535129860360255 0.045862331115804518 0.23359949817584322
decision_type=10 10 10 8 10 2 2
left_child=2 4 -1 -4 -2 -5 -3
right_child=1 6 3 5 -6 -7 -8
leaf_value=-0.030670999475100942 -0.032423213961673247 -0.0031472007158864818 -0.034732587420423261 0.02640563583285677 0.023824163018775966 -0.038993057192220015 0.02065319096492501
leaf_count=4551 421 171 226 41 30 38 44
internal_value=0 -0.07177082798182001 -0.93120306396727104 -0.25913864119746816 -0.73671634448411949 0.51483874637450067 0.23094254296458408
internal_count=5522 666 4856 305 451 79 215
shrinkage=0.03


Tree=71
num_leaves=9
num_cat=0
split_feature=71 17 27 66 29 68 64 51
split_gain=48.962757419376629 12.131361847829851 33.140106282516378 8.6294491972066254 5.5735048085668684 13.107921278367868 1.9080232545028597 0.63692199728909671
threshold=0.1405164647696118 0.0028071065468529212 0.083708866367178864 0.047207092253918649 0.10393045388929094 0.10087323121897368 0.13183245941655239 0.078266911007469755
decision_type=10 2 10 8 2 10 10 10
left_child=1 2 -1 -2 7 -6 -7 -5
right_child=3 -3 -4 4 5 6 -8 -9
leaf_value=-0.028333747287982925 -0.03374329953577701 -0.031724597384180715 0.031481070933250178 -0.011252224742847892 -0.035293322271839463 -0.020772850416703618 0.012959377714152462 0.0288094812324012
leaf_count=500 204 4311 39 51 205 83 81 48
internal_value=0 -0.93617341601026327 -0.33662867563534737 -0.09568525682827668 0.06170750732911584 -0.2114160596523211 0.1433123493699219 0.63328336625359583
internal_count=5522 4850 539 672 468 369 164 99
shrinkage=0.03


Tree=72
num_leaves=7
num_cat=0
split_feature=71 17 69 59 63 59
split_gain=47.708849177922275 11.909332124188609 32.915324807029833 9.2495973246056415 8.9971445774108858 1.0373046270226798
threshold=0.1405164647696118 0.0028071065468529212 0.02846986519912836 0.066760096525772736 0.06555092595463044 0.079987251958842612
decision_type=10 2 10 10 10 10
left_child=1 2 -1 -2 -4 -5
right_child=3 -3 4 5 -6 -7
leaf_value=-0.03323439092278202 -0.02605772440281625 -0.031650351779260739 -0.034359943788081763 0.025230065544995545 0.03719784919569151 -0.0014750099105411997
leaf_count=463 298 4311 55 38 21 336
internal_value=0 -0.93197474059747554 -0.33162670787722609 -0.09399678553666535 0.76432112170072375 0.12461196348570723
internal_count=5522 4850 539 672 76 374
shrinkage=0.03


Tree=73
num_leaves=9
num_cat=0
split_feature=61 50 83 24 14 54 48 48
split_gain=47.315687537827614 10.54264270279517 5.638807216056307 3.7926357750579989 3.4107607062462648 2.7081971690771383 2.4356841153328901 6.5427910827604414
threshold=0.092836368878368894 0.053730176292992017 0.14658722274192146 0.14152171961885493 0.2490641789249354 0.10535129860360255 0.1203396660609041 0.12723448813533511
decision_type=10 2 10 10 2 10 10 10
left_child=2 5 4 -3 6 -2 -1 -8
right_child=1 3 -4 -5 -6 -7 7 -9
leaf_value=-0.031971000792993066 -0.030553822333826239 0.011855184538636446 0.027667607624134179 -0.014724497641277926 0.016141784699224469 0.012860862494489323 0.026029519371996813 -0.032991930441997032
leaf_count=4506 470 177 21 121 24 36 21 146
internal_value=0 -0.13013211125491428 -0.9464878822429168 0.14181987758522074 -0.97667329645211276 -0.735982950684825 -1.0091236284319147 -0.18623353004460377
internal_count=5522 804 4718 298 4697 506 4673 167
shrinkage=0.03


Tree=74
num_leaves=9
num_cat=0
split_feature=61 64 83 14 50 24 48 48
split_gain=46.445363961863791 11.057627001698863 5.1293500337746991 3.0904464282556887 2.972077806600586 2.8426574046806614 2.2446787616556776 5.8693240889782263
threshold=0.092836368878368894 0.0607217144251537 0.14658722274192146 0.2490641789249354 0.039806896533709252 0.10960051591617333 0.1203396660609041 0.12723448813533511
decision_type=10 10 10 2 2 10 10 10
left_child=2 -2 3 6 -3 -6 -1 -8
right_child=1 4 -4 -5 5 -7 7 -9
leaf_value=-0.031910065927810212 -0.026780073137537792 -0.020241029882542623 0.026532628508375407 0.015605339750200852 0.017775043574916407 -0.0072131580712792151 0.025308630867012294 -0.032907652125784462
leaf_count=4506 353 239 21 24 100 112 21 146
internal_value=0 -0.12724791983894188 -0.9427562091263082 -0.97341091432190041 0.095044388527421919 0.27075923003532942 -1.0064027635601547 -0.18374013705928977
internal_count=5522 804 4718 4697 451 212 4673 167
shrinkage=0.03


Tree=75
num_leaves=8
num_cat=0
split_feature=32 51 62 17 17 27 58
split_gain=45.788759337231653 9.8965491010037283 9.470051135138382 11.068107557062469 4.025845069764074 1.4436649951687244 0.37972554654303714
threshold=0.058989926875694369 0.13534389703496791 0.23359949817584322 0.0018481841466100118 0.060007674033651655 0.14165448263507749 0.43722892981078881
decision_type=10 10 2 2 2 10 10
left_child=1 -1 3 -2 -5 -4 -3
right_child=2 6 5 4 -6 -7 -8
leaf_value=-0.0299222265381183 0.029404904764411738 -0.013024442525083365 -0.038806578091782347 -0.039672337029153681 -0.007916638702419973 0.023150048186434489 0.031094562601149327
leaf_count=4652 21 182 24 235 347 39 22
internal_value=0 -0.9106634726652314 -0.053271600267286737 -0.34689170755101084 -0.57010033162920648 0.58540839204605744 -0.097502301651673604
internal_count=5522 4856 666 603 582 63 204
shrinkage=0.03


Tree=76
num_leaves=10
num_cat=0
split_feature=61 56 55 48 14 75 14 26 26
split_gain=44.382981642126481 9.4837168141775567 12.580227459684391 3.8603605972764115 4.308545360848143 3.2114829844815631 3.0487204652689162 0.14318738752790416 1.579362425837239
threshold=0.092836368878368894 0.034338317853457832 0.15979464174037619 0.1203396660609041 0.2490641789249354 0.17065893804515772 0.0057316943726679467 0.23308729523612479 0.12076814800409909
decision_type=10 10 10 10 2 10 2 2 2
left_child=3 2 -2 4 5 -1 -5 8 -3
right_child=1 7 -4 6 -6 -7 -8 -9 -10
leaf_value=-0.03181229599275627 -0.033271429173789363 0.0081868692128566223 0.022096684228899807 0.017915652388461122 0.017684469475875899 0.038998247653852132 -0.033493055398464866 0.018046504748981305 -0.020843938911178146
leaf_count=4502 484 130 30 58 22 20 116 50 110
internal_value=0 -0.12153027391702001 -0.70578854578151895 -0.93376948672286353 -0.9983407940992497 -1.0361297151763245 -0.098209053937113086 0.1532088651740465 -0.1208262945025036
internal_count=5522 804 514 4718 4544 4522 174 290 240
shrinkage=0.03


Tree=77
num_leaves=8
num_cat=0
split_feature=68 59 17 66 59 15 14
split_gain=43.551079412378357 10.114287568913868 8.864411108908854 7.0048027827292128 6.4747630728911076 5.1322522841995806 1.7715829909084277
threshold=0.05031082305211753 0.066760096525772736 0.0018481841466100118 0.047207092253918649 0.28849646380459198 0.2705635019341105 0.2490641789249354
decision_type=10 10 2 10 8 10 2
left_child=4 2 -2 -3 5 6 -1
right_child=1 3 -4 -5 -6 -7 -8
leaf_value=-0.030946223360638046 0.026696809029071296 -0.034331817046109943 -0.027903485378976873 0.010721954890020004 0.020428756120499429 0.051887401100352247 0.010488312027822005
leaf_count=4552 20 110 575 196 20 20 29
internal_value=0 -0.12043940850222092 -0.65540514850031117 0.19069932931041197 -0.93137019642588736 -0.97229210022861257 -0.99529137447747862
internal_count=5522 901 595 306 4621 4601 4581
shrinkage=0.03


Tree=78
num_leaves=5
num_cat=0
split_feature=32 51 50 54
split_gain=42.460334015327078 9.2031913279358832 6.4326506802713261 0.24315345686446932
threshold=0.058989926875694369 0.13534389703496791 0.039806896533709252 0.2077676655505572
decision_type=10 10 2 8
left_child=1 -1 -2 -3
right_child=2 3 -4 -5
leaf_value=-0.029584673388633253 -0.023091657003926947 -0.026627363715487299 0.0053760510467197372 0.011898702012520674
leaf_count=4652 372 129 294 75
internal_value=0 -0.89563698985757589 -0.046528164371376163 -0.08753621679324039
internal_count=5522 4856 666 204
shrinkage=0.03


Tree=79
num_leaves=7
num_cat=0
split_feature=61 56 83 17 27 51
split_gain=41.445205613054554 7.6088122896592267 4.3617268353483496 3.1267726356506955 25.397500354099115 2.4369558513043295
threshold=0.092836368878368894 0.034338317853457832 0.14658722274192146 0.0028071065468529212 0.083708866367178864 0.13534389703496791
decision_type=10 10 10 2 10 10
left_child=2 5 3 4 -1 -2
right_child=1 -3 -4 -5 -6 -7
leaf_value=-0.032421901450994293 -0.032616585072002678 0.0044081864278753338 0.025767529893356195 -0.03164743939451773 0.031046474330915556 0.0048473869752165633
leaf_count=474 441 290 21 4187 36 73
internal_value=0 -0.1124664791636736 -0.91973253928893073 -0.95357471456873844 -0.40034544118070792 -0.68784125954123465
internal_count=5522 804 4718 4697 510 514
shrinkage=0.03


Tree=80
num_leaves=8
num_cat=0
split_feature=61 64 27 27 15 51 19
split_gain=40.682278220937377 8.6980319744005268 3.9104193830171141 17.611056561992797 2.4299208280347813 2.2083741374864818 2.5231644557599004
threshold=0.092836368878368894 0.0607217144251537 0.083708866367178864 0.085329211980491149 0.21670780114763649 0.015907598009628047 0.20709159974667229
decision_type=10 10 10 10 10 8 8
left_child=2 -2 -1 -4 -5 -3 -7
right_child=1 5 3 4 -6 6 -8
leaf_value=-0.031153102529255985 -0.026092920335219278 -0.034314396641071936 0.038924507585673181 -0.027322692242771687 0.046456858328190916 0.0094091291495437528 -0.035394611850540013
leaf_count=4028 353 117 24 645 21 273 61
internal_value=0 -0.10988391109182995 -0.91637555776803881 -0.42598477856388078 -0.77188737270169627 0.10001919114618731 0.20687387826501591
internal_count=5522 804 4718 690 666 451 334
shrinkage=0.03


Tree=81
num_leaves=7
num_cat=0
split_feature=68 59 17 66 59 15
split_gain=40.279109855520346 7.9780660089627613 7.8084975241593142 5.7580691327678277 5.5403244452893716 4.157416519625599
threshold=0.05031082305211753 0.066760096525772736 0.0018481841466100118 0.047207092253918649 0.28849646380459198 0.2705635019341105
decision_type=10 10 2 10 8 10
left_child=4 2 -2 -3 5 -1
right_child=1 3 -4 -5 -6 -7
leaf_value=-0.029473600209482691 0.02639032856883897 -0.034188023450864767 -0.02740355178125831 0.010380482500078463 0.020114477353985926 0.048390279575123631
leaf_count=4581 20 110 575 196 20 20
internal_value=0 -0.10586069130104966 -0.63137838745938391 0.18740862597358257 -0.9140976474837591 -0.95744402391802097
internal_count=5522 901 595 306 4621 4601
shrinkage=0.03


Tree=82
num_leaves=8
num_cat=0
split_feature=71 17 63 66 29 49 58
split_gain=38.826803207492844 12.542502905944588 25.004651987376711 5.4319922288165756 4.3354553493324364 2.3325879445579059 2.0651621341981325
threshold=0.1405164647696118 0.0028071065468529212 0.06555092595463044 0.047207092253918649 0.10393045388929094 0.11512165129568235 0.050249556791905056
decision_type=10 2 10 8 2 10 10
left_child=1 2 -1 -2 -5 -6 -4
right_child=3 -3 6 4 5 -7 -8
leaf_value=-0.032385064869713813 -0.033288185519091032 -0.03107376457752167 -0.01009971098877605 0.019211569386048458 -0.022263516409597596 0.0050090629883308242 0.039278544624508749
leaf_count=466 204 4311 53 99 260 109 20
internal_value=0 -0.88836666447705093 -0.22838934382655759 -0.06552471998659723 0.075636938558736461 -0.19956940927433953 0.74381099077170088
internal_count=5522 4850 539 672 468 369 73
shrinkage=0.03


Tree=83
num_leaves=5
num_cat=0
split_feature=32 51 62 66
split_gain=38.268418131161582 8.2391667790770384 6.159682351790071 3.3967057769422695
threshold=0.058989926875694369 0.13534389703496791 0.23359949817584322 0.16657894706607904
decision_type=10 10 2 8
left_child=1 -1 3 -2
right_child=2 -3 -4 -5
leaf_value=-0.029107752962964872 -0.0035876867672349857 -0.0021255984390246511 0.016875862355843201 -0.041013856116731917
leaf_count=4652 514 204 63 89
internal_value=0 -0.87261062445430693 -0.032134033666738053 -0.31318510557615442
internal_count=5522 4856 666 603
shrinkage=0.03


Tree=84
num_leaves=6
num_cat=0
split_feature=68 49 59 15 14
split_gain=37.601693043259075 10.650403229723867 4.6566729710150696 3.7685823565328747 2.0015254410361365
threshold=0.05031082305211753 0.069257695859346366 0.28849646380459198 0.2705635019341105 0.2490641789249354
decision_type=10 10 8 10 2
left_child=2 -2 3 4 -1
right_child=1 -3 -4 -5 -6
leaf_value=-0.030415575724984639 -0.022497718421943234 0.0054559827192516225 0.019455560929564571 0.047393259987864471 0.012669345013289118
leaf_count=4552 623 278 20 20 29
internal_value=0 -0.096335148155788544 -0.89964992802692745 -0.94463221929840124 -0.97130036685401389
internal_count=5522 901 4621 4601 4581
shrinkage=0.03


Tree=85
num_leaves=10
num_cat=0
split_feature=61 64 48 27 83 67 67 55 55
split_gain=36.322844096899615 7.1309380242458662 4.7476755067777674 4.6249331292120814 2.6192544085680254 1.5991349563870969 1.8224194335609951 1.5549214295926195 1.7213839067339016
threshold=0.092836368878368894 0.0607217144251537 0.1203396660609041 0.24639132443666431 0.13451128744722946 0.19243778918029938 0.30720593060798801 0.11287252432406207 0.071609928245375459
decision_type=10 10 10 10 8 8 8 10 10
left_child=2 -2 3 -1 -4 7 -7 8 -3
right_child=1 5 4 -5 -6 6 -8 -9 -10
leaf_value=-0.030010980763534572 -0.025577221886581271 0.0061819091695479592 -0.032448866445343991 0.05053628750207801 0.021580554899959772 -0.056014591136947615 -9.2251473214599594e-05 0.020680023724308549 -0.03174809820743249
leaf_count=4524 353 206 126 20 48 36 65 79 65
internal_value=0 -0.094391040649472804 -0.89264834602082654 -0.97130522370254246 0.018167466036894855 0.10665919787983064 -0.71421648734103538 0.2657319839919921 -0.10085950430282514
internal_count=5522 804 4718 4544 174 451 101 350 271
shrinkage=0.03


Tree=86
num_leaves=7
num_cat=0
split_feature=68 49 54 58 17 17
split_gain=36.067980079354669 9.3657836159202557 3.8356014300961974 1.730864097343499 2.5604340978409823 2.3840477777836782
threshold=0.05031082305211753 0.069257695859346366 0.10535129860360255 0.56204099853327449 0.003173916857108479 0.0019630876677469516
decision_type=10 10 10 10 2 2
left_child=3 2 -2 4 5 -1
right_child=1 -3 -4 -5 -6 -7
leaf_value=-0.032726913349228393 -0.031689682489557003 0.0053539159868303135 0.017532361632817666 0.013565528506378469 -0.031612509443616113 0.0033135062528927822
leaf_count=323 574 278 49 72 3972 254
internal_value=0 -0.089385745874732886 -0.73624034929075266 -0.89052617171654802 -0.93408261455075403 -0.39382989902569232
internal_count=5522 901 623 4621 4549 577
shrinkage=0.03


Tree=87
num_leaves=9
num_cat=0
split_feature=69 17 66 63 67 19 59 75
split_gain=35.449082780560587 17.878232003652432 18.726126668276635 6.651864710658117 6.2177793713549363 4.7133286612324596 4.1411228238057092 1.3292737060068873
threshold=0.02846986519912836 0.0037451078176548667 0.064790965362488032 0.06555092595463044 0.15312574538487214 0.15628787415802822 0.066760096525772736 0.21822074109244394
decision_type=10 2 10 10 10 8 10 10
left_child=4 3 -3 -2 7 6 -4 -1
right_child=1 2 5 -5 -6 -7 -8 -9
leaf_value=-0.03153284502463314 -0.033655201058367404 -0.032035586268021908 -0.020693172450850686 0.032969489678321841 0.014428714943322735 -0.041102421001673717 0.011717718112608206 0.032334508846944006
leaf_count=3994 71 913 236 32 43 54 159 20
internal_value=0 -0.17629057933682277 -0.38963516554418709 0.75819623987532936 -0.94919338360145178 -0.017584190592243792 0.13039497552810578 -1.0171482125257418
internal_count=5522 1465 1362 103 4057 449 395 4014
shrinkage=0.03


Tree=88
num_leaves=10
num_cat=0
split_feature=69 17 66 55 63 19 68 26 26
split_gain=34.496612268760643 16.631226084461087 18.059794331802376 6.1328183766111124 5.9204379154381179 4.0366179625858631 4.9181859472969833 0.79393216585459925 7.2658374973558146
threshold=0.02846986519912836 0.0037451078176548667 0.064790965362488032 0.17443053545184367 0.06555092595463044 0.15628787415802822 0.07297508963634905 0.23308729523612479 0.115655079947209
decision_type=10 2 10 10 10 8 10 2 2
left_child=3 4 -3 -1 -2 6 -4 8 -8
right_child=1 2 5 -5 -6 -7 7 -9 -10
leaf_value=-0.030455330709691072 -0.03355607467341027 -0.031978000734285222 -0.026563008744238132 0.014680264534754602 0.032406773611045166 -0.040444135910388049 0.018259695894374275 0.026192759114335381 -0.026911948476401441
leaf_count=4015 71 913 178 42 32 54 93 34 90
internal_value=0 -0.17358867316708074 -0.38348004754151993 -0.94600554815321725 0.74681819538045091 -0.01720442001811618 0.12717089039901713 0.35072853597217712 -0.032057311429156132
internal_count=5522 1465 1362 4057 103 449 395 217 183
shrinkage=0.03


Tree=89
num_leaves=10
num_cat=0
split_feature=69 17 66 55 63 19 68 75 62
split_gain=33.446905116154781 15.469475350869653 17.368754175161218 5.7366752079205128 5.222086565986455 3.3978749040123546 4.2101103088352296 1.0016020535113341 0.10621767835980123
threshold=0.02846986519912836 0.0037451078176548667 0.064790965362488032 0.17443053545184367 0.06555092595463044 0.15628787415802822 0.07297508963634905 0.21822074109244394 0.23359949817584322
decision_type=10 2 10 10 10 8 10 10 2
left_child=3 4 -3 7 -2 6 -4 -1 -8
right_child=1 2 5 -5 -6 -7 8 -9 -10
leaf_value=-0.03145315663315932 -0.033459547275048074 -0.031922043511780331 -0.02612585316867673 0.014266653040532453 0.031852624720873093 -0.039801820548916907 -0.00082505214587208064 0.030761930694456978 0.025582162519694918
leaf_count=3994 71 913 178 42 32 54 184 21 33
